<?xml version="1.0"?>
<opencv_storage>
<opencv_ml_svm>
  <format>3</format>
  <svmType>C_SVC</svmType>
  <kernel>
    <type>LINEAR</type></kernel>
  <C>1.</C>
  <term_criteria><iterations>1000</iterations></term_criteria>
  <var_count>128</var_count>
  <class_count>2</class_count>
  <class_labels type_id="opencv-matrix">
    <rows>2</rows>
    <cols>1</cols>
    <dt>i</dt>
    <data>
      0 1</data></class_labels>
  <sv_total>1</sv_total>
  <support_vectors>
    <_>
      7.54738552e-03 1.29689113e-03 1.93204341e-05 1.83090905e-03
      1.11603842e-03 -2.34002317e-03 -1.96555420e-03 6.46988861e-03
      3.12865945e-03 -6.24395860e-03 -7.15437299e-03 -2.41049519e-03
      -1.34908326e-03 -8.10623728e-03 -7.83621706e-03 4.73727146e-03
      5.46408677e-03 -1.14931492e-03 -1.73982338e-03 4.01041843e-03
      2.13213847e-03 -5.59080997e-03 -8.82324390e-03 3.75532103e-03
      5.71359973e-03 3.85734206e-03 7.14017486e-04 3.12722358e-03
      1.45612145e-03 -1.10821263e-03 -4.27281531e-03 3.82591621e-03
      -1.59539364e-03 -2.46464601e-03 -5.82517870e-03 -1.66510057e-03
      5.64164342e-03 6.14908570e-03 3.95248790e-04 2.32693320e-03
      -1.62722878e-04 2.43812124e-03 -2.23759795e-04 -6.11072546e-03
      1.90580986e-03 -5.30187692e-03 -1.89572491e-03 4.52461274e-04
      3.41173052e-03 5.06558781e-03 5.34915878e-03 -4.86482168e-03
      -9.81167075e-04 -1.08702546e-02 3.45634553e-03 -7.72359082e-04
      3.49756540e-03 5.01348404e-04 2.01734691e-03 -2.34361109e-03
      -3.53726442e-03 3.13576707e-03 6.24955166e-03 9.94196162e-04
      3.65989096e-03 -3.24567221e-03 -1.06880639e-03 -8.04678630e-03
      2.44946079e-03 8.88166111e-03 7.29053654e-03 3.47653544e-03
      2.70032790e-03 -1.73751230e-03 -7.29929982e-03 -2.69529119e-04
      -2.19092442e-04 -4.44148714e-03 1.03935841e-02 1.98278204e-03
      4.44806553e-03 4.34985050e-05 -8.00860522e-04 8.14566482e-03
      -4.49699908e-03 -1.73745025e-02 2.97307083e-03 -2.81308033e-03
      1.46734819e-03 -4.45655966e-03 9.68583976e-04 1.28899971e-02
      -3.92987218e-04 -1.31783886e-02 -1.01234368e-03 -3.39390221e-03
      -2.17640330e-03 -1.03890654e-02 -4.20853123e-03 5.54513885e-03
      4.16996563e-03 -4.46212385e-03 -8.11383245e-04 -3.79869109e-03
      -1.78520416e-03 -9.08377580e-03 1.19934708e-03 4.11359780e-03
      6.09979127e-03 -4.83885361e-03 -6.13918155e-03 -8.92002892e-04
      1.09151506e-03 -3.74291698e-03 1.81728066e-03 4.36023436e-03
      6.68449234e-03 -3.42110870e-03 -4.40881774e-03 2.57609715e-03
      2.58694915e-03 -4.65791381e-04 8.48203199e-04 3.35764629e-03
      5.99199394e-03 -6.70899113e-04 -2.06657671e-04 5.59582235e-03</_></support_vectors>
  <uncompressed_sv_total>77</uncompressed_sv_total>
  <uncompressed_support_vectors>
    <_>
      1. 1. 1. 2. 1. 0. 0. 1. 2. 2. 1. 2. 2. 1. 1. 0. 3. 2. 1. 2. 2. 2.
      1. 0. 2. 2. 2. 4. 5. 4. 2. 1. 3. 3. 4. 9. 14. 8. 2. 1. 5. 4. 5.
      18. 29. 16. 3. 2. 9. 7. 10. 26. 38. 23. 6. 2. 12. 10. 13. 30. 39.
      25. 7. 3. 13. 14. 14. 24. 26. 16. 6. 4. 18. 22. 15. 19. 16. 10. 5.
      4. 31. 36. 16. 14. 9. 6. 4. 3. 61. 59. 22. 8. 5. 3. 3. 2. 76. 71.
      27. 5. 2. 2. 2. 1. 74. 71. 30. 6. 2. 2. 1. 1. 64. 66. 29. 5. 1. 2.
      1. 1. 56. 61. 27. 5. 1. 2. 1. 1.</_>
    <_>
      0. 0. 0. 0. 0. 0. 0. 0. 0. 0. 0. 0. 0. 0. 0. 0. 0. 0. 0. 0. 0. 1.
      0. 0. 0. 0. 0. 0. 0. 0. 0. 0. 0. 0. 8. 16. 18. 18. 1. 0. 0. 0. 24.
      55. 69. 50. 15. 0. 0. 0. 41. 126. 160. 119. 30. 0. 0. 0. 50. 178.
      227. 160. 29. 0. 0. 0. 42. 171. 234. 138. 18. 9. 0. 0. 25. 108.
      160. 77. 7. 13. 0. 0. 10. 44. 61. 29. 1. 14. 0. 0. 0. 12. 16. 4.
      0. 13. 0. 0. 0. 0. 0. 0. 2. 12. 1. 0. 0. 0. 0. 0. 16. 21. 0. 0. 0.
      0. 0. 0. 20. 30. 0. 0. 0. 0. 0. 4. 26. 36.</_>
    <_>
      4. 2. 3. 4. 4. 6. 1. 1. 4. 3. 5. 7. 10. 9. 2. 1. 3. 4. 8. 14. 21.
      16. 3. 1. 3. 9. 26. 38. 51. 49. 8. 1. 5. 19. 58. 81. 99. 105. 16.
      1. 7. 27. 85. 121. 135. 142. 21. 1. 10. 35. 107. 157. 159. 158.
      24. 1. 10. 38. 116. 161. 140. 129. 19. 1. 8. 36. 111. 129. 81. 53.
      8. 1. 6. 29. 89. 92. 42. 14. 2. 1. 5. 17. 46. 47. 21. 10. 2. 1. 5.
      10. 20. 20. 9. 7. 2. 1. 6. 7. 9. 10. 7. 4. 0. 0. 6. 4. 3. 5. 8. 5.
      1. 0. 3. 3. 3. 5. 10. 10. 1. 0. 2. 3. 3. 6. 11. 12. 2. 0.</_>
    <_>
      3. 3. 3. 6. 8. 1. 0. 0. 3. 3. 5. 9. 11. 2. 0. 0. 3. 3. 8. 15. 18.
      3. 0. 0. 3. 6. 22. 38. 44. 6. 0. 0. 4. 12. 46. 78. 87. 13. 0. 0.
      6. 18. 69. 116. 124. 18. 0. 0. 8. 25. 92. 153. 153. 22. 0. 0. 9.
      25. 94. 157. 147. 21. 0. 0. 8. 21. 76. 126. 105. 16. 0. 0. 8. 16.
      56. 91. 68. 11. 0. 0. 6. 13. 35. 50. 33. 5. 1. 0. 5. 10. 20. 24.
      14. 2. 1. 0. 4. 8. 11. 12. 7. 1. 0. 0. 4. 6. 5. 6. 5. 2. 0. 0. 4.
      6. 4. 5. 6. 1. 0. 0. 4. 6. 4. 5. 6. 1. 0. 0.</_>
    <_>
      1. 1. 2. 2. 3. 2. 3. 3. 1. 1. 1. 3. 3. 3. 3. 3. 2. 3. 2. 5. 6. 3.
      3. 4. 2. 3. 10. 42. 50. 20. 3. 3. 2. 4. 38. 116. 129. 58. 7. 2. 2.
      9. 87. 160. 160. 121. 20. 2. 2. 15. 131. 163. 162. 147. 32. 2. 3.
      20. 152. 162. 161. 154. 43. 3. 2. 21. 151. 161. 162. 155. 43. 3.
      2. 15. 132. 162. 161. 147. 38. 3. 3. 8. 99. 160. 156. 122. 20. 3.
      3. 4. 47. 122. 128. 64. 8. 3. 3. 3. 13. 52. 58. 20. 4. 3. 3. 3. 3.
      8. 9. 3. 4. 3. 3. 3. 2. 3. 5. 2. 2. 4. 2. 1. 1. 2. 4. 3. 1. 3.</_>
    <_>
      1. 2. 3. 2. 4. 3. 4. 4. 3. 2. 3. 3. 4. 4. 3. 3. 3. 2. 2. 4. 7. 5.
      2. 2. 2. 2. 2. 10. 22. 9. 2. 1. 3. 3. 5. 33. 60. 20. 4. 1. 3. 3.
      11. 73. 115. 35. 5. 2. 2. 4. 21. 111. 150. 42. 5. 2. 2. 5. 32.
      127. 128. 31. 4. 2. 3. 4. 46. 133. 74. 22. 4. 2. 2. 5. 53. 106.
      39. 12. 4. 2. 2. 4. 31. 53. 20. 6. 4. 3. 1. 3. 11. 19. 10. 4. 3.
      2. 2. 2. 4. 6. 4. 3. 3. 2. 2. 2. 1. 2. 3. 3. 2. 2. 2. 2. 2. 1. 2.
      3. 3. 2. 2. 2. 2. 1. 2. 2. 3. 1.</_>
    <_>
      4. 6. 10. 9. 10. 9. 6. 3. 4. 8. 13. 14. 15. 13. 7. 3. 6. 12. 27.
      36. 36. 27. 12. 4. 8. 17. 41. 59. 59. 42. 17. 5. 9. 23. 58. 89.
      90. 60. 22. 5. 11. 30. 77. 126. 130. 81. 27. 5. 12. 37. 94. 161.
      168. 102. 32. 6. 12. 37. 94. 159. 171. 112. 39. 8. 12. 35. 89.
      146. 163. 121. 46. 11. 11. 32. 81. 128. 149. 120. 49. 13. 10. 26.
      62. 97. 113. 91. 38. 10. 9. 18. 42. 65. 75. 60. 26. 8. 8. 13. 27.
      42. 48. 39. 17. 6. 6. 10. 17. 27. 32. 26. 12. 5. 4. 6. 8. 12. 16.
      13. 8. 4. 4. 6. 5. 8. 12. 10. 6. 3.</_>
    <_>
      3. 2. 2. 2. 3. 2. 2. 2. 3. 2. 2. 3. 4. 3. 2. 2. 3. 3. 3. 6. 6. 4.
      3. 2. 3. 4. 5. 15. 17. 10. 4. 2. 3. 5. 16. 52. 65. 38. 8. 4. 5. 7.
      32. 96. 113. 69. 14. 5. 8. 9. 53. 133. 145. 93. 23. 6. 8. 13. 70.
      149. 156. 115. 32. 6. 6. 14. 73. 149. 158. 121. 35. 6. 3. 11. 60.
      134. 149. 111. 33. 6. 3. 8. 43. 100. 115. 83. 20. 5. 3. 5. 25. 61.
      73. 53. 11. 4. 3. 4. 9. 26. 32. 25. 6. 4. 3. 3. 4. 8. 11. 9. 3. 3.
      3. 4. 3. 2. 3. 4. 2. 2. 3. 4. 3. 1. 3. 4. 2. 2.</_>
    <_>
      45. 52. 59. 57. 54. 49. 41. 35. 46. 53. 61. 59. 55. 51. 42. 36.
      48. 59. 72. 73. 71. 67. 60. 54. 52. 68. 87. 90. 90. 87. 80. 74.
      56. 76. 101. 107. 109. 107. 100. 95. 64. 84. 108. 113. 113. 110.
      104. 98. 76. 92. 111. 113. 112. 107. 100. 95. 88. 100. 114. 114.
      110. 103. 96. 91. 108. 117. 127. 127. 124. 118. 111. 106. 137.
      142. 149. 152. 153. 150. 144. 139. 166. 168. 171. 178. 183. 183.
      178. 173. 174. 176. 178. 189. 198. 201. 198. 194. 139. 144. 154.
      170. 182. 189. 190. 190. 103. 113. 128. 149. 166. 176. 182. 185.
      73. 86. 107. 133. 152. 166. 175. 181. 70. 84. 105. 131. 151. 165.
      175. 181.</_>
    <_>
      2. 2. 3. 3. 2. 2. 3. 2. 2. 2. 3. 4. 3. 3. 3. 2. 5. 9. 19. 14. 14.
      14. 11. 6. 27. 84. 137. 102. 109. 87. 85. 35. 34. 157. 215. 176.
      188. 146. 140. 44. 13. 84. 112. 77. 75. 57. 54. 16. 4. 12. 18. 12.
      17. 15. 7. 4. 2. 4. 6. 18. 104. 101. 10. 3. 3. 6. 7. 31. 206. 187.
      16. 4. 2. 6. 8. 43. 221. 176. 12. 3. 2. 5. 8. 49. 154. 158. 10. 3.
      2. 5. 8. 26. 61. 87. 12. 3. 2. 12. 69. 11. 53. 68. 75. 2. 1. 20.
      140. 19. 95. 115. 89. 3. 2. 8. 43. 9. 24. 31. 21. 3. 2. 4. 8. 4.
      4. 7. 5. 3.</_>
    <_>
      5. 5. 5. 4. 5. 4. 4. 7. 4. 5. 7. 9. 4. 3. 6. 20. 4. 6. 23. 27. 6.
      4. 9. 36. 4. 8. 81. 84. 10. 4. 9. 36. 5. 14. 150. 138. 21. 7. 8.
      22. 4. 16. 131. 103. 21. 15. 7. 7. 4. 13. 57. 48. 37. 65. 17. 4.
      5. 15. 70. 70. 74. 123. 27. 3. 4. 26. 142. 121. 115. 139. 36. 3.
      5. 37. 160. 130. 139. 127. 31. 3. 8. 51. 142. 105. 106. 69. 20. 2.
      11. 58. 96. 50. 44. 21. 7. 3. 7. 31. 37. 15. 11. 5. 3. 2. 4. 8. 7.
      5. 3. 3. 2. 2. 3. 3. 4. 4. 2. 2. 2. 2. 2. 4. 4. 3. 2. 2. 2. 2.</_>
    <_>
      3. 4. 5. 5. 6. 3. 2. 3. 3. 4. 5. 5. 4. 4. 3. 4. 3. 4. 6. 9. 4. 4.
      5. 19. 4. 4. 23. 43. 11. 4. 10. 48. 5. 5. 69. 133. 28. 4. 11. 41.
      5. 6. 92. 142. 26. 11. 6. 11. 6. 7. 49. 71. 34. 50. 11. 4. 5. 7.
      50. 98. 92. 109. 23. 4. 4. 10. 104. 148. 144. 141. 27. 3. 4. 21.
      120. 138. 147. 125. 21. 3. 8. 36. 116. 101. 93. 59. 11. 2. 12. 33.
      67. 42. 28. 12. 4. 2. 8. 17. 24. 11. 5. 3. 2. 2. 3. 4. 6. 4. 2. 2.
      1. 2. 3. 3. 3. 2. 2. 2. 1. 1. 3. 3. 3. 2. 1. 2. 2. 1.</_>
    <_>
      2. 2. 2. 2. 2. 2. 2. 2. 2. 2. 2. 2. 1. 2. 2. 2. 2. 2. 2. 2. 2. 2.
      3. 2. 3. 4. 8. 8. 10. 12. 4. 2. 24. 63. 127. 115. 120. 110. 16. 2.
      10. 74. 131. 102. 85. 64. 9. 2. 3. 6. 12. 19. 37. 8. 2. 2. 2. 4.
      7. 76. 181. 21. 3. 2. 2. 4. 7. 98. 196. 18. 2. 2. 1. 3. 7. 50. 85.
      21. 2. 3. 2. 4. 24. 52. 92. 59. 4. 2. 2. 3. 13. 25. 55. 56. 4. 3.
      2. 3. 49. 38. 94. 74. 4. 4. 2. 2. 7. 7. 11. 7. 3. 3. 2. 2. 2. 3.
      3. 2. 2. 2. 2. 2. 2. 2. 3. 2. 2. 1.</_>
    <_>
      6. 12. 31. 54. 54. 37. 19. 8. 10. 24. 56. 85. 85. 62. 34. 10. 16.
      45. 97. 135. 134. 103. 58. 15. 25. 72. 137. 172. 171. 138. 77. 24.
      36. 100. 175. 203. 202. 170. 98. 35. 50. 125. 194. 217. 213. 193.
      124. 46. 63. 145. 209. 225. 220. 210. 146. 56. 70. 156. 217. 225.
      224. 217. 156. 65. 71. 158. 220. 226. 225. 220. 158. 68. 68. 152.
      218. 225. 225. 219. 155. 64. 58. 133. 207. 224. 224. 211. 143. 55.
      46. 108. 189. 217. 217. 195. 126. 46. 29. 72. 138. 173. 180. 154.
      93. 35. 14. 39. 86. 122. 136. 110. 60. 24. 9. 22. 51. 77. 87. 69.
      38. 16. 7. 14. 30. 48. 57. 45. 25. 12.</_>
    <_>
      1. 2. 2. 1. 2. 2. 2. 2. 2. 2. 2. 1. 2. 2. 2. 2. 1. 2. 2. 2. 2. 2.
      2. 2. 1. 2. 5. 17. 15. 4. 2. 2. 1. 3. 24. 71. 61. 11. 2. 2. 2. 8.
      74. 135. 123. 41. 5. 2. 2. 18. 121. 161. 155. 82. 9. 2. 2. 27.
      140. 164. 162. 112. 15. 3. 2. 32. 146. 164. 164. 117. 15. 2. 3.
      25. 135. 160. 161. 112. 14. 2. 3. 18. 116. 150. 150. 86. 9. 1. 3.
      7. 65. 117. 109. 41. 5. 2. 3. 3. 20. 52. 47. 13. 4. 2. 3. 2. 5.
      13. 12. 5. 3. 3. 2. 2. 3. 4. 4. 3. 2. 2. 2. 3. 2. 2. 2. 2. 1. 1.</_>
    <_>
      1. 1. 2. 2. 2. 2. 2. 2. 1. 2. 2. 2. 1. 2. 1. 2. 2. 2. 2. 3. 3. 3.
      2. 2. 3. 4. 6. 6. 6. 7. 5. 2. 28. 67. 102. 98. 100. 85. 42. 2. 22.
      136. 196. 170. 168. 148. 47. 2. 3. 34. 49. 34. 27. 27. 8. 2. 2. 3.
      5. 23. 79. 32. 3. 2. 2. 5. 8. 59. 219. 84. 5. 2. 2. 5. 7. 81. 213.
      63. 5. 2. 2. 6. 7. 57. 108. 54. 5. 2. 2. 6. 43. 14. 62. 78. 10. 3.
      2. 7. 105. 16. 108. 103. 11. 4. 2. 4. 11. 4. 10. 8. 3. 4. 1. 3. 3.
      2. 3. 3. 2. 2. 1. 2. 2. 2. 2. 2. 1. 2.</_>
    <_>
      7. 8. 8. 7. 8. 14. 22. 29. 8. 8. 9. 11. 15. 22. 34. 41. 8. 10. 12.
      20. 28. 40. 57. 64. 10. 13. 22. 38. 54. 66. 81. 82. 12. 19. 36.
      66. 92. 100. 106. 94. 18. 34. 63. 103. 130. 127. 116. 93. 28. 57.
      102. 149. 170. 148. 112. 78. 47. 86. 137. 174. 181. 145. 96. 60.
      78. 124. 170. 180. 164. 120. 70. 39. 105. 151. 180. 168. 134. 90.
      47. 24. 131. 168. 167. 139. 90. 57. 29. 15. 131. 154. 135. 103.
      55. 33. 17. 9. 107. 109. 85. 60. 31. 18. 11. 6. 81. 72. 49. 32.
      16. 10. 8. 5. 54. 43. 27. 18. 12. 8. 7. 5. 41. 28. 16. 11. 9. 7.
      7. 4.</_>
    <_>
      7. 7. 8. 10. 10. 10. 8. 7. 7. 9. 11. 15. 15. 13. 11. 10. 10. 16.
      25. 34. 35. 28. 22. 18. 14. 24. 39. 54. 56. 44. 34. 27. 18. 36.
      61. 87. 92. 76. 56. 43. 24. 51. 91. 130. 140. 122. 89. 65. 29. 66.
      120. 171. 187. 167. 121. 86. 31. 72. 131. 185. 205. 189. 142. 104.
      33. 76. 137. 192. 215. 205. 158. 121. 34. 76. 138. 191. 217. 212.
      167. 129. 31. 66. 117. 168. 193. 190. 147. 110. 27. 54. 96. 143.
      168. 166. 125. 89. 22. 42. 73. 113. 136. 137. 101. 71. 18. 30. 51.
      80. 98. 102. 77. 56. 13. 19. 29. 48. 62. 69. 55. 41. 12. 16. 24.
      40. 54. 62. 50. 37.</_>
    <_>
      5. 5. 5. 5. 5. 3. 2. 1. 15. 11. 9. 7. 6. 4. 2. 1. 44. 31. 21. 15.
      12. 9. 4. 2. 109. 79. 49. 38. 31. 18. 8. 2. 152. 135. 110. 110.
      96. 62. 28. 5. 157. 152. 144. 164. 154. 116. 63. 10. 125. 123.
      131. 171. 177. 162. 106. 16. 144. 155. 162. 165. 147. 132. 84. 14.
      129. 155. 172. 158. 135. 122. 79. 17. 78. 110. 147. 142. 139. 133.
      95. 22. 61. 67. 79. 76. 77. 80. 66. 24. 86. 67. 51. 42. 47. 60.
      58. 33. 134. 103. 61. 47. 55. 76. 78. 56. 172. 154. 96. 90. 94.
      122. 136. 108. 182. 183. 127. 126. 137. 166. 165. 133. 180. 196.
      147. 150. 168. 195. 175. 141.</_>
    <_>
      3. 3. 5. 4. 4. 2. 3. 3. 3. 3. 4. 4. 3. 3. 3. 3. 2. 4. 5. 12. 14.
      5. 4. 3. 4. 6. 25. 97. 99. 31. 4. 4. 6. 11. 100. 177. 179. 110.
      11. 5. 5. 20. 158. 190. 191. 166. 30. 4. 4. 39. 178. 191. 193.
      182. 61. 5. 4. 52. 182. 190. 190. 184. 78. 5. 6. 52. 179. 189.
      183. 185. 78. 5. 5. 36. 171. 185. 186. 183. 58. 4. 3. 17. 144.
      179. 184. 166. 30. 3. 3. 5. 82. 164. 170. 106. 9. 3. 4. 3. 20. 86.
      94. 32. 4. 4. 4. 4. 6. 14. 16. 7. 4. 4. 4. 4. 5. 4. 4. 4. 4. 4. 3.
      3. 3. 3. 2. 3. 3. 3.</_>
    <_>
      10. 13. 29. 56. 57. 28. 12. 10. 9. 22. 77. 127. 130. 79. 19. 10.
      11. 55. 143. 170. 173. 147. 50. 9. 15. 107. 177. 194. 198. 182.
      104. 13. 24. 152. 198. 210. 213. 202. 151. 23. 40. 180. 211. 219.
      222. 215. 181. 42. 56. 194. 217. 225. 227. 220. 195. 59. 67. 198.
      218. 226. 230. 224. 199. 72. 67. 196. 215. 224. 230. 225. 198. 74.
      61. 188. 210. 220. 229. 223. 190. 68. 47. 173. 203. 215. 224. 216.
      177. 54. 32. 148. 189. 205. 211. 200. 153. 37. 19. 111. 169. 185.
      190. 176. 118. 22. 12. 67. 139. 163. 166. 147. 75. 12. 8. 32. 86.
      122. 124. 94. 35. 7. 7. 14. 41. 66. 66. 44. 13. 5.</_>
    <_>
      2. 3. 3. 3. 3. 2. 2. 2. 2. 4. 6. 6. 6. 5. 6. 4. 13. 35. 55. 46.
      54. 42. 49. 21. 48. 149. 192. 168. 186. 139. 131. 49. 29. 149.
      179. 144. 152. 111. 102. 26. 8. 43. 49. 34. 29. 21. 21. 6. 3. 5.
      6. 9. 38. 34. 6. 4. 2. 5. 6. 21. 153. 140. 13. 3. 2. 5. 7. 30.
      217. 189. 13. 4. 2. 7. 9. 41. 208. 172. 10. 4. 2. 6. 8. 41. 132.
      154. 10. 5. 2. 6. 8. 20. 49. 71. 24. 12. 2. 12. 38. 22. 83. 85.
      136. 54. 3. 17. 74. 35. 130. 114. 127. 52. 3. 8. 21. 11. 29. 26.
      23. 9. 2. 4. 5. 3. 6. 5. 5. 3.</_>
    <_>
      1. 14. 18. 12. 12. 11. 9. 7. 1. 14. 19. 14. 14. 13. 10. 9. 1. 18.
      27. 22. 22. 19. 16. 14. 2. 23. 34. 31. 30. 26. 22. 21. 4. 47. 69.
      58. 57. 49. 43. 41. 7. 90. 129. 105. 100. 88. 78. 74. 10. 131.
      186. 149. 142. 127. 114. 108. 10. 134. 198. 171. 167. 155. 146.
      143. 8. 126. 196. 186. 186. 181. 178. 178. 8. 114. 185. 190. 194.
      195. 198. 201. 6. 86. 145. 158. 168. 174. 179. 183. 5. 57. 103.
      124. 139. 149. 157. 163. 4. 44. 78. 96. 110. 121. 130. 136. 3. 45.
      72. 75. 80. 90. 99. 104. 3. 46. 66. 54. 52. 60. 69. 74. 3. 46. 65.
      50. 45. 53. 62. 67.</_>
    <_>
      12. 11. 10. 10. 8. 9. 10. 11. 12. 11. 10. 10. 9. 9. 10. 11. 18.
      15. 14. 14. 14. 13. 12. 10. 24. 20. 18. 20. 20. 18. 13. 9. 30. 25.
      23. 25. 27. 23. 16. 9. 51. 44. 42. 47. 50. 43. 28. 13. 80. 70. 68.
      75. 81. 70. 46. 20. 107. 95. 93. 103. 112. 97. 62. 27. 134. 120.
      117. 128. 138. 124. 84. 40. 159. 144. 139. 149. 160. 152. 110. 58.
      184. 169. 162. 170. 183. 180. 137. 77. 206. 191. 183. 189. 202.
      201. 155. 88. 220. 209. 201. 203. 214. 208. 156. 86. 235. 226.
      218. 217. 226. 214. 157. 82. 246. 240. 233. 229. 236. 219. 157.
      81. 248. 241. 234. 230. 237. 219. 158. 80.</_>
    <_>
      2. 3. 3. 4. 3. 3. 2. 2. 22. 36. 30. 34. 37. 20. 1. 2. 134. 182.
      167. 167. 148. 69. 3. 2. 130. 167. 140. 124. 124. 45. 3. 2. 25.
      28. 21. 17. 18. 7. 2. 2. 3. 5. 26. 77. 36. 4. 2. 3. 6. 7. 66. 207.
      96. 8. 2. 2. 6. 8. 90. 229. 88. 62. 10. 2. 6. 7. 91. 149. 144.
      157. 48. 2. 5. 6. 39. 52. 150. 171. 95. 3. 13. 42. 60. 104. 148.
      170. 105. 4. 15. 48. 57. 97. 128. 166. 81. 3. 5. 8. 6. 11. 54.
      119. 35. 3. 3. 3. 4. 5. 9. 23. 5. 2. 2. 2. 3. 3. 4. 2. 2. 2. 1. 2.
      2. 3. 2. 2. 2. 2.</_>
    <_>
      1. 12. 12. 11. 9. 7. 4. 3. 2. 24. 23. 16. 12. 8. 4. 3. 5. 46. 43.
      27. 19. 12. 3. 2. 9. 77. 76. 52. 38. 25. 10. 4. 13. 117. 123. 91.
      68. 48. 25. 8. 16. 150. 167. 137. 115. 90. 53. 18. 18. 174. 207.
      192. 179. 151. 96. 34. 17. 173. 215. 208. 200. 176. 118. 47. 15.
      146. 189. 185. 180. 166. 118. 57. 11. 107. 147. 145. 144. 138.
      104. 58. 6. 58. 86. 87. 89. 92. 73. 49. 4. 44. 62. 60. 69. 82. 73.
      61. 7. 66. 72. 66. 84. 108. 104. 94. 10. 92. 96. 84. 107. 138.
      134. 123. 13. 123. 132. 114. 137. 170. 164. 149. 15. 138. 150.
      129. 152. 187. 179. 162.</_>
    <_>
      3. 4. 11. 22. 37. 55. 59. 40. 3. 5. 13. 25. 42. 56. 54. 37. 3. 7.
      16. 31. 51. 56. 45. 29. 4. 8. 21. 38. 58. 54. 34. 21. 7. 10. 26.
      47. 63. 50. 22. 14. 8. 14. 34. 54. 62. 44. 15. 9. 11. 21. 42. 59.
      56. 38. 13. 8. 14. 27. 50. 62. 48. 29. 10. 7. 18. 34. 58. 63. 38.
      19. 6. 5. 24. 41. 61. 58. 30. 13. 5. 4. 33. 49. 59. 48. 22. 11. 5.
      3. 41. 55. 54. 37. 16. 8. 4. 2. 49. 60. 49. 27. 11. 5. 2. 2. 55.
      61. 41. 20. 8. 3. 2. 2. 59. 57. 33. 17. 5. 3. 2. 2. 61. 55. 29.
      16. 4. 3. 2. 2.</_>
    <_>
      170. 167. 164. 160. 146. 114. 73. 36. 168. 166. 163. 160. 148.
      114. 70. 35. 167. 166. 163. 160. 152. 116. 65. 32. 167. 166. 166.
      159. 158. 122. 57. 28. 167. 167. 170. 162. 168. 130. 54. 26. 165.
      168. 175. 168. 174. 132. 48. 22. 164. 169. 178. 179. 176. 124. 42.
      18. 162. 170. 179. 189. 174. 112. 35. 16. 161. 174. 172. 177. 175.
      109. 33. 14. 160. 178. 163. 161. 186. 114. 32. 14. 155. 172. 148.
      136. 165. 106. 29. 11. 146. 155. 127. 104. 113. 80. 21. 8. 133.
      127. 103. 79. 69. 46. 16. 9. 121. 107. 86. 64. 47. 28. 13. 8. 110.
      93. 74. 54. 36. 19. 11. 8. 101. 86. 66. 48. 31. 16. 10. 7.</_>
    <_>
      7. 4. 5. 5. 8. 8. 6. 4. 12. 9. 8. 9. 9. 8. 6. 4. 19. 17. 15. 16.
      12. 11. 7. 4. 40. 40. 42. 47. 32. 26. 18. 11. 64. 68. 77. 86. 62.
      49. 38. 24. 72. 89. 118. 134. 112. 96. 87. 61. 74. 101. 144. 163.
      147. 131. 126. 96. 64. 91. 132. 145. 141. 131. 137. 119. 55. 92.
      140. 145. 148. 140. 141. 129. 47. 104. 167. 162. 170. 158. 139.
      127. 35. 83. 136. 134. 156. 164. 149. 146. 22. 50. 83. 88. 124.
      160. 159. 167. 22. 37. 55. 57. 77. 105. 109. 122. 26. 32. 45. 42.
      41. 53. 58. 72. 33. 44. 75. 71. 55. 44. 41. 46. 37. 53. 96. 90.
      65. 41. 33. 32.</_>
    <_>
      2. 2. 4. 10. 17. 37. 57. 61. 3. 3. 6. 12. 22. 44. 60. 57. 3. 5. 8.
      16. 31. 54. 64. 49. 4. 7. 12. 22. 44. 63. 57. 36. 5. 9. 16. 30.
      56. 68. 46. 23. 6. 11. 24. 43. 63. 65. 37. 16. 8. 15. 32. 55. 66.
      57. 27. 11. 10. 21. 42. 66. 61. 41. 20. 7. 14. 28. 49. 70. 54. 28.
      15. 4. 18. 34. 54. 67. 45. 18. 11. 4. 26. 44. 57. 55. 33. 12. 8.
      4. 36. 55. 59. 40. 21. 8. 5. 3. 45. 59. 54. 29. 16. 7. 4. 3. 54.
      61. 46. 19. 12. 6. 3. 2. 61. 57. 34. 11. 6. 3. 2. 2. 65. 54. 27.
      6. 3. 2. 1. 2.</_>
    <_>
      8. 10. 39. 84. 99. 109. 104. 114. 8. 15. 56. 100. 104. 113. 113.
      119. 8. 22. 78. 116. 110. 117. 121. 124. 9. 31. 98. 116. 116. 115.
      123. 122. 9. 39. 107. 119. 124. 117. 122. 123. 9. 46. 114. 121.
      129. 119. 123. 126. 12. 53. 122. 124. 129. 120. 127. 129. 13. 49.
      118. 122. 123. 117. 132. 130. 12. 44. 115. 119. 120. 122. 134.
      126. 11. 40. 112. 114. 120. 134. 133. 117. 11. 29. 87. 112. 119.
      145. 134. 113. 10. 21. 64. 109. 124. 151. 137. 114. 9. 15. 44. 99.
      130. 152. 141. 115. 9. 11. 29. 70. 122. 147. 138. 106. 8. 10. 20.
      46. 98. 123. 125. 94. 8. 9. 15. 32. 76. 99. 113. 84.</_>
    <_>
      1. 1. 1. 1. 1. 1. 1. 1. 1. 1. 1. 1. 1. 1. 1. 1. 1. 1. 1. 1. 1. 1.
      1. 1. 1. 1. 1. 1. 1. 1. 1. 1. 2. 12. 28. 27. 16. 6. 2. 1. 4. 33.
      76. 76. 44. 15. 4. 2. 4. 26. 63. 81. 59. 22. 6. 2. 4. 15. 39. 73.
      68. 31. 10. 3. 2. 8. 23. 60. 71. 44. 16. 6. 1. 4. 15. 43. 65. 53.
      22. 9. 1. 3. 10. 25. 53. 57. 26. 11. 1. 1. 5. 16. 39. 46. 28. 12.
      1. 1. 2. 9. 26. 36. 27. 12. 1. 1. 2. 4. 15. 25. 24. 12. 1. 2. 2.
      2. 8. 15. 17. 9. 2. 3. 2. 1. 3. 10. 11. 6.</_>
    <_>
      3. 3. 4. 4. 3. 3. 4. 3. 3. 4. 4. 4. 4. 4. 5. 4. 3. 5. 5. 5. 5. 4.
      5. 5. 4. 7. 5. 8. 8. 6. 5. 7. 7. 16. 15. 20. 23. 17. 12. 10. 10.
      25. 30. 41. 50. 42. 31. 19. 10. 29. 48. 70. 87. 79. 60. 38. 14.
      26. 51. 86. 102. 97. 83. 64. 20. 29. 55. 113. 133. 124. 104. 82.
      26. 37. 61. 144. 178. 160. 129. 99. 19. 24. 46. 122. 186. 183.
      170. 157. 24. 18. 30. 84. 139. 149. 157. 174. 48. 24. 20. 52. 71.
      84. 106. 148. 98. 49. 32. 68. 62. 54. 55. 80. 132. 69. 38. 91. 96.
      71. 51. 59. 150. 81. 40. 109. 134. 99. 62. 60.</_>
    <_>
      1. 1. 52. 128. 120. 141. 155. 152. 1. 1. 52. 128. 120. 142. 156.
      153. 1. 1. 54. 133. 128. 152. 167. 164. 0. 1. 56. 139. 137. 165.
      181. 176. 0. 1. 58. 146. 147. 178. 194. 188. 1. 1. 60. 152. 151.
      177. 192. 186. 1. 1. 63. 157. 153. 171. 181. 174. 1. 1. 66. 163.
      154. 166. 171. 163. 1. 1. 63. 156. 147. 154. 158. 150. 1. 1. 54.
      136. 131. 139. 142. 135. 0. 0. 46. 115. 115. 123. 126. 121. 0. 0.
      37. 93. 98. 104. 106. 103. 0. 0. 26. 67. 75. 79. 80. 78. 1. 0. 15.
      40. 52. 54. 54. 53. 1. 0. 6. 17. 33. 33. 32. 33. 1. 0. 5. 16. 31.
      32. 30. 31.</_>
    <_>
      3. 3. 7. 15. 30. 52. 66. 54. 3. 4. 9. 19. 35. 57. 64. 45. 3. 7.
      12. 25. 44. 65. 60. 32. 4. 8. 16. 34. 55. 63. 49. 24. 4. 10. 20.
      43. 65. 58. 38. 18. 6. 14. 26. 53. 72. 49. 27. 12. 8. 18. 34. 60.
      73. 41. 20. 8. 10. 23. 44. 63. 64. 35. 18. 6. 15. 31. 53. 63. 54.
      28. 14. 5. 22. 41. 63. 60. 41. 20. 8. 3. 30. 48. 65. 54. 32. 14.
      7. 3. 38. 55. 64. 45. 23. 10. 6. 3. 47. 58. 54. 33. 15. 6. 4. 2.
      56. 59. 43. 22. 8. 3. 2. 2. 64. 56. 33. 15. 7. 2. 1. 2. 69. 54.
      26. 12. 7. 2. 1. 2.</_>
    <_>
      5. 5. 7. 5. 3. 2. 3. 2. 7. 5. 7. 7. 4. 4. 3. 2. 25. 17. 12. 9. 6.
      4. 4. 2. 71. 51. 28. 17. 11. 6. 5. 3. 158. 121. 72. 49. 28. 18. 8.
      2. 151. 153. 138. 128. 96. 68. 34. 5. 118. 140. 159. 168. 148.
      116. 64. 9. 93. 104. 134. 150. 156. 132. 77. 11. 89. 101. 125.
      122. 124. 92. 45. 7. 62. 69. 96. 100. 102. 78. 31. 6. 59. 48. 61.
      67. 69. 62. 27. 8. 89. 63. 47. 38. 35. 47. 31. 13. 126. 126. 89.
      63. 46. 65. 58. 30. 156. 175. 118. 98. 95. 129. 127. 74. 162. 185.
      147. 141. 129. 171. 175. 124. 149. 166. 172. 178. 135. 175. 183.
      161.</_>
    <_>
      2. 2. 2. 1. 1. 3. 3. 1. 2. 2. 2. 2. 4. 5. 4. 2. 2. 2. 2. 4. 9. 10.
      6. 2. 2. 2. 2. 8. 19. 20. 7. 3. 3. 4. 7. 24. 45. 37. 10. 3. 3. 7.
      17. 53. 83. 57. 13. 2. 4. 12. 40. 100. 97. 51. 14. 1. 5. 20. 63.
      130. 91. 35. 12. 2. 6. 29. 81. 115. 57. 13. 5. 3. 6. 26. 64. 78.
      38. 6. 3. 3. 6. 18. 34. 36. 25. 5. 3. 3. 3. 8. 12. 12. 10. 3. 2.
      2. 2. 2. 2. 2. 2. 2. 2. 2. 2. 2. 2. 2. 2. 2. 2. 2. 2. 2. 1. 1. 1.
      2. 2. 2. 2. 2. 1. 1. 1. 2. 2. 2.</_>
    <_>
      6. 7. 5. 6. 6. 3. 2. 5. 14. 13. 9. 9. 7. 5. 3. 5. 30. 25. 17. 17.
      11. 7. 5. 6. 67. 62. 48. 45. 30. 18. 11. 6. 108. 104. 87. 82. 58.
      39. 22. 7. 126. 135. 136. 134. 106. 85. 56. 14. 138. 157. 171.
      167. 141. 121. 85. 21. 147. 165. 170. 152. 140. 124. 98. 28. 152.
      175. 174. 148. 146. 130. 103. 32. 154. 186. 185. 155. 159. 140.
      101. 35. 119. 145. 147. 126. 140. 143. 118. 51. 72. 85. 92. 83.
      108. 137. 134. 68. 66. 58. 55. 49. 64. 89. 94. 50. 81. 56. 38. 29.
      34. 48. 56. 34. 134. 108. 72. 48. 52. 56. 65. 49. 169. 143. 96.
      60. 65. 62. 72. 60.</_>
    <_>
      2. 3. 4. 6. 4. 3. 3. 5. 2. 4. 9. 9. 5. 3. 6. 20. 4. 8. 37. 41. 7.
      4. 10. 32. 4. 17. 106. 103. 9. 4. 7. 17. 3. 21. 124. 112. 10. 7.
      5. 5. 3. 15. 73. 65. 22. 29. 9. 3. 4. 12. 42. 62. 63. 87. 22. 4.
      3. 18. 61. 94. 93. 126. 34. 3. 4. 29. 111. 99. 91. 133. 35. 3. 5.
      42. 147. 89. 91. 113. 25. 2. 7. 54. 137. 81. 87. 61. 13. 2. 10.
      54. 91. 48. 43. 19. 5. 1. 7. 29. 38. 18. 14. 5. 3. 2. 3. 10. 10.
      6. 5. 3. 2. 1. 3. 3. 3. 2. 2. 2. 2. 2. 2. 3. 3. 1. 1. 1. 2. 3.</_>
    <_>
      3. 4. 6. 5. 4. 3. 3. 4. 3. 4. 4. 4. 5. 4. 6. 11. 3. 4. 11. 17. 4.
      3. 13. 28. 6. 4. 49. 73. 9. 3. 18. 40. 6. 5. 100. 142. 19. 5. 13.
      24. 4. 6. 83. 109. 22. 20. 8. 9. 4. 8. 45. 58. 46. 75. 9. 4. 5. 9.
      92. 112. 93. 118. 19. 4. 5. 14. 136. 134. 144. 132. 18. 2. 5. 23.
      139. 132. 128. 89. 16. 2. 8. 35. 105. 69. 62. 28. 7. 2. 9. 24. 50.
      24. 13. 6. 4. 2. 4. 8. 11. 6. 3. 3. 2. 1. 2. 3. 3. 2. 2. 3. 2. 2.
      2. 2. 2. 1. 2. 2. 2. 2. 2. 2. 2. 1. 3. 2. 2. 1.</_>
    <_>
      2. 7. 28. 68. 118. 101. 54. 12. 2. 7. 28. 68. 118. 101. 54. 12. 2.
      8. 31. 73. 119. 99. 52. 11. 2. 8. 34. 78. 120. 97. 50. 11. 2. 9.
      37. 83. 122. 95. 48. 11. 2. 9. 36. 81. 119. 92. 46. 11. 2. 8. 33.
      77. 115. 90. 45. 11. 2. 7. 31. 72. 110. 87. 44. 10. 2. 7. 31. 74.
      110. 86. 43. 10. 2. 8. 35. 80. 113. 84. 41. 9. 2. 9. 39. 87. 116.
      84. 38. 8. 2. 9. 39. 86. 111. 78. 35. 7. 2. 8. 31. 67. 87. 64. 30.
      7. 3. 6. 22. 48. 63. 49. 25. 6. 2. 5. 15. 32. 44. 36. 20. 5. 2. 5.
      15. 30. 42. 35. 20. 5.</_>
    <_>
      2. 2. 2. 2. 2. 2. 1. 1. 2. 2. 3. 2. 2. 2. 1. 1. 1. 2. 3. 3. 3. 2.
      2. 2. 2. 3. 3. 3. 3. 3. 2. 2. 8. 17. 40. 39. 33. 36. 6. 2. 15. 76.
      182. 155. 136. 122. 11. 2. 2. 18. 44. 29. 24. 19. 4. 1. 1. 3. 5.
      35. 99. 10. 2. 2. 2. 4. 7. 80. 210. 15. 2. 1. 2. 4. 7. 88. 144.
      13. 2. 2. 2. 3. 26. 24. 57. 39. 2. 2. 2. 3. 92. 24. 91. 64. 3. 2.
      1. 3. 10. 6. 10. 7. 2. 3. 1. 2. 2. 2. 3. 2. 1. 1. 1. 1. 2. 1. 2.
      1. 1. 1. 1. 1. 2. 2. 3. 2. 2. 2.</_>
    <_>
      2. 3. 2. 2. 3. 2. 2. 3. 3. 3. 3. 2. 3. 2. 2. 3. 2. 2. 4. 7. 11. 4.
      2. 2. 2. 2. 9. 30. 34. 6. 3. 2. 3. 5. 24. 77. 78. 19. 5. 3. 7. 8.
      53. 132. 132. 60. 9. 3. 9. 13. 84. 157. 152. 92. 14. 4. 9. 17. 96.
      162. 158. 98. 15. 4. 6. 15. 87. 158. 154. 90. 12. 4. 4. 10. 61.
      135. 134. 68. 8. 3. 3. 6. 30. 83. 88. 28. 5. 2. 3. 4. 12. 34. 40.
      12. 4. 3. 3. 4. 4. 10. 12. 4. 3. 3. 3. 3. 2. 3. 2. 2. 3. 3. 3. 2.
      2. 2. 2. 2. 2. 2. 2. 2. 2. 2. 2. 2. 2. 3.</_>
    <_>
      1. 1. 1. 1. 1. 1. 1. 1. 1. 1. 1. 1. 1. 1. 1. 1. 1. 1. 1. 1. 1. 1.
      1. 1. 1. 1. 1. 1. 1. 1. 1. 1. 1. 4. 13. 24. 12. 4. 2. 1. 2. 13.
      56. 103. 52. 16. 4. 3. 4. 9. 44. 102. 79. 24. 6. 3. 3. 4. 23. 73.
      81. 33. 9. 3. 3. 2. 10. 43. 68. 38. 12. 3. 2. 3. 5. 22. 48. 36.
      12. 4. 2. 2. 2. 9. 26. 25. 11. 4. 1. 2. 2. 5. 13. 15. 9. 3. 1. 2.
      2. 3. 6. 8. 7. 3. 1. 2. 3. 3. 2. 3. 5. 3. 1. 2. 3. 3. 1. 2. 3. 3.
      1. 2. 2. 2. 1. 2. 2. 3.</_>
    <_>
      1. 2. 1. 2. 2. 1. 2. 2. 1. 2. 2. 2. 2. 2. 2. 2. 1. 3. 3. 3. 2. 2.
      2. 2. 1. 3. 3. 3. 3. 3. 2. 1. 1. 2. 4. 5. 5. 4. 3. 1. 2. 1. 4. 8.
      11. 7. 3. 1. 3. 2. 5. 14. 20. 13. 4. 1. 5. 4. 9. 24. 34. 23. 7. 2.
      7. 4. 10. 27. 40. 30. 12. 6. 8. 5. 10. 23. 37. 33. 18. 11. 7. 4.
      8. 16. 32. 40. 30. 19. 6. 3. 5. 8. 27. 47. 45. 28. 4. 3. 4. 8. 30.
      59. 61. 40. 2. 3. 4. 9. 34. 65. 69. 47. 1. 3. 4. 8. 27. 48. 49.
      38. 1. 3. 4. 7. 23. 37. 36. 32.</_>
    <_>
      2. 3. 2. 3. 3. 2. 2. 2. 3. 6. 8. 7. 7. 9. 7. 4. 23. 55. 75. 65.
      74. 57. 57. 20. 70. 178. 200. 185. 196. 144. 133. 34. 63. 152.
      162. 130. 123. 96. 73. 18. 15. 36. 31. 22. 18. 15. 10. 4. 3. 5. 4.
      19. 50. 39. 6. 3. 3. 5. 6. 57. 175. 133. 10. 3. 3. 7. 8. 71. 236.
      161. 10. 3. 4. 7. 8. 98. 209. 127. 8. 3. 3. 7. 8. 87. 117. 122. 8.
      4. 3. 10. 6. 33. 40. 60. 32. 10. 3. 40. 27. 56. 105. 112. 154. 44.
      3. 48. 43. 63. 125. 116. 117. 35. 3. 13. 9. 15. 23. 21. 16. 7. 2.
      4. 4. 3. 5. 5. 4. 2.</_>
    <_>
      2. 4. 5. 4. 5. 5. 1. 0. 2. 4. 5. 8. 6. 5. 1. 0. 6. 5. 10. 23. 11.
      4. 1. 0. 11. 9. 46. 106. 27. 4. 1. 0. 40. 23. 100. 201. 47. 6. 1.
      0. 81. 39. 96. 182. 44. 22. 3. 0. 50. 28. 49. 97. 72. 93. 12. 1.
      11. 11. 46. 124. 136. 142. 16. 0. 7. 15. 79. 151. 144. 148. 15. 0.
      15. 25. 88. 132. 110. 83. 7. 0. 13. 23. 65. 71. 45. 25. 2. 1. 5.
      9. 23. 20. 10. 5. 1. 0. 3. 3. 6. 4. 3. 3. 0. 0. 3. 2. 3. 2. 2. 2.
      0. 0. 2. 2. 3. 2. 3. 2. 0. 0. 2. 1. 1. 1. 2. 2. 0. 0.</_>
    <_>
      4. 6. 6. 6. 8. 6. 2. 0. 4. 6. 5. 9. 7. 5. 2. 0. 6. 6. 18. 26. 8.
      4. 3. 0. 12. 12. 92. 97. 14. 4. 2. 0. 45. 28. 175. 168. 19. 6. 3.
      0. 80. 33. 171. 136. 22. 13. 5. 0. 52. 20. 100. 78. 52. 54. 11. 0.
      21. 15. 77. 102. 116. 107. 18. 1. 9. 24. 124. 135. 154. 130. 19.
      1. 18. 41. 138. 128. 150. 109. 15. 1. 27. 48. 115. 81. 88. 49. 9.
      1. 15. 30. 67. 38. 33. 14. 3. 0. 5. 10. 19. 10. 6. 4. 1. 0. 4. 3.
      4. 3. 2. 2. 1. 0. 4. 2. 1. 2. 1. 2. 2. 0. 3. 2. 1. 1. 1. 2. 2. 0.</_>
    <_>
      2. 2. 2. 3. 2. 2. 1. 1. 2. 2. 3. 4. 2. 2. 2. 1. 2. 3. 4. 5. 2. 2.
      2. 2. 2. 3. 5. 6. 5. 4. 3. 2. 1. 3. 5. 13. 19. 10. 3. 1. 2. 3. 7.
      29. 62. 26. 3. 2. 2. 4. 17. 72. 126. 46. 5. 3. 3. 6. 39. 116. 130.
      45. 6. 2. 3. 8. 64. 127. 93. 29. 5. 1. 2. 9. 72. 95. 44. 12. 4. 1.
      2. 6. 44. 43. 20. 8. 3. 2. 2. 3. 15. 14. 8. 5. 3. 2. 1. 3. 4. 5.
      5. 4. 3. 2. 1. 2. 2. 2. 3. 3. 3. 2. 2. 2. 2. 2. 2. 2. 2. 2. 2. 3.
      1. 1. 3. 2. 2. 2.</_>
    <_>
      3. 3. 3. 3. 3. 2. 2. 2. 3. 4. 5. 7. 10. 10. 10. 3. 20. 41. 50. 67.
      74. 84. 61. 10. 97. 175. 169. 170. 170. 160. 87. 12. 93. 153. 124.
      107. 82. 67. 38. 5. 24. 36. 27. 21. 17. 12. 6. 2. 5. 7. 7. 39. 70.
      40. 5. 2. 3. 6. 6. 99. 187. 105. 7. 2. 4. 7. 8. 128. 225. 93. 7.
      2. 4. 6. 8. 140. 171. 82. 6. 2. 4. 7. 7. 85. 85. 65. 9. 2. 4. 12.
      6. 30. 40. 67. 64. 4. 4. 57. 19. 81. 120. 130. 133. 7. 2. 56. 22.
      50. 67. 49. 36. 5. 3. 11. 6. 9. 13. 10. 8. 3. 2. 3. 3. 3. 6. 5. 3.
      2.</_>
    <_>
      10. 78. 185. 154. 184. 61. 10. 7. 12. 92. 216. 170. 198. 61. 10.
      8. 13. 98. 228. 220. 206. 55. 9. 8. 14. 119. 216. 220. 188. 39.
      10. 7. 17. 136. 173. 186. 181. 34. 10. 6. 19. 146. 131. 149. 179.
      36. 10. 7. 15. 97. 79. 88. 132. 31. 8. 6. 8. 38. 34. 36. 62. 27.
      12. 4. 6. 28. 42. 36. 46. 69. 55. 5. 8. 63. 109. 93. 95. 138. 96.
      7. 8. 87. 154. 131. 124. 146. 80. 6. 4. 55. 99. 79. 73. 78. 39. 5.
      3. 16. 29. 26. 23. 21. 13. 4. 2. 5. 10. 9. 8. 10. 7. 3. 2. 3. 5.
      4. 5. 6. 3. 3. 2. 2. 3. 4. 5. 3. 2. 2.</_>
    <_>
      2. 2. 2. 2. 2. 2. 2. 1. 2. 2. 2. 2. 2. 2. 2. 1. 2. 2. 2. 2. 2. 2.
      2. 1. 2. 2. 2. 1. 2. 2. 2. 1. 2. 3. 3. 2. 4. 3. 2. 1. 3. 3. 4. 6.
      12. 9. 3. 2. 3. 5. 5. 14. 29. 23. 6. 2. 5. 8. 6. 22. 38. 30. 7. 2.
      6. 11. 9. 26. 36. 27. 8. 3. 8. 15. 14. 27. 26. 17. 8. 5. 11. 22.
      18. 19. 18. 9. 5. 4. 26. 46. 30. 12. 10. 5. 3. 3. 45. 75. 45. 6.
      3. 3. 2. 2. 51. 76. 45. 4. 2. 2. 2. 2. 37. 53. 33. 4. 1. 2. 2. 2.
      21. 29. 20. 3. 1. 1. 2. 2.</_>
    <_>
      4. 3. 3. 4. 4. 4. 3. 3. 3. 3. 3. 5. 6. 4. 4. 3. 3. 3. 5. 11. 20.
      10. 4. 4. 4. 4. 17. 38. 57. 27. 3. 4. 5. 10. 50. 92. 96. 58. 7. 4.
      5. 14. 73. 127. 111. 75. 10. 4. 3. 18. 91. 150. 132. 74. 11. 4. 4.
      30. 129. 160. 145. 84. 14. 4. 5. 37. 139. 142. 135. 81. 15. 4. 5.
      33. 119. 111. 118. 50. 9. 3. 5. 34. 84. 76. 91. 33. 7. 2. 5. 29.
      53. 54. 65. 22. 5. 2. 7. 19. 27. 36. 38. 12. 4. 2. 7. 11. 9. 15.
      16. 4. 3. 2. 5. 6. 4. 5. 5. 3. 3. 2. 4. 3. 2. 4. 3. 3. 3. 1.</_>
    <_>
      4. 5. 4. 4. 3. 3. 3. 3. 4. 5. 3. 4. 4. 3. 3. 3. 4. 5. 4. 5. 8. 9.
      5. 3. 5. 4. 5. 10. 29. 31. 8. 3. 5. 5. 9. 31. 67. 66. 15. 4. 4. 5.
      22. 78. 90. 78. 18. 4. 5. 7. 51. 128. 106. 75. 20. 4. 4. 10. 78.
      148. 124. 75. 18. 2. 4. 11. 87. 150. 132. 73. 17. 3. 4. 14. 98.
      139. 127. 57. 14. 3. 5. 27. 107. 90. 117. 41. 6. 4. 4. 26. 72. 46.
      70. 24. 3. 3. 4. 13. 29. 18. 22. 10. 4. 3. 3. 5. 7. 5. 5. 4. 2. 3.
      3. 3. 3. 3. 3. 3. 3. 3. 3. 2. 3. 3. 3. 3. 3. 2.</_>
    <_>
      6. 9. 9. 10. 11. 8. 6. 9. 6. 12. 16. 22. 23. 10. 6. 8. 8. 19. 33.
      45. 51. 16. 7. 8. 10. 40. 86. 97. 111. 43. 9. 8. 12. 65. 140. 133.
      156. 80. 13. 9. 13. 72. 157. 140. 161. 102. 16. 8. 12. 62. 150.
      151. 155. 98. 17. 8. 13. 73. 170. 163. 165. 90. 17. 7. 16. 90.
      161. 132. 162. 85. 17. 7. 17. 94. 142. 102. 166. 86. 16. 7. 16.
      77. 111. 71. 139. 67. 12. 8. 12. 50. 70. 44. 86. 40. 10. 8. 8. 23.
      30. 21. 36. 19. 9. 7. 6. 8. 8. 8. 9. 9. 8. 6. 6. 6. 7. 6. 6. 8. 8.
      6. 8. 7. 6. 5. 5. 7. 7. 6.</_>
    <_>
      3. 4. 3. 4. 3. 3. 2. 2. 3. 3. 3. 2. 2. 2. 2. 3. 3. 3. 3. 2. 2. 3.
      2. 3. 3. 3. 4. 8. 10. 8. 2. 2. 3. 3. 10. 30. 34. 33. 2. 2. 3. 3.
      26. 78. 78. 74. 8. 3. 3. 3. 31. 102. 100. 92. 11. 3. 3. 3. 41.
      122. 121. 88. 9. 3. 3. 4. 54. 135. 132. 80. 7. 2. 3. 2. 57. 119.
      119. 83. 8. 3. 3. 3. 49. 82. 84. 66. 8. 3. 3. 3. 26. 36. 34. 34.
      5. 3. 3. 2. 9. 11. 9. 12. 3. 4. 3. 3. 4. 3. 4. 4. 3. 3. 1. 2. 3.
      4. 4. 3. 2. 3. 1. 1. 3. 3. 3. 3. 2. 2.</_>
    <_>
      3. 4. 3. 4. 2. 3. 2. 1. 4. 4. 4. 4. 1. 3. 2. 1. 4. 4. 3. 3. 2. 3.
      2. 2. 3. 4. 3. 4. 3. 2. 3. 4. 3. 4. 6. 19. 27. 20. 5. 3. 3. 3. 16.
      79. 94. 71. 14. 3. 3. 4. 26. 127. 121. 113. 18. 2. 4. 4. 24. 126.
      127. 120. 23. 2. 5. 4. 31. 132. 133. 103. 13. 3. 5. 4. 42. 123.
      101. 88. 10. 2. 4. 4. 41. 94. 78. 88. 10. 2. 4. 3. 21. 49. 40. 51.
      7. 3. 4. 2. 7. 10. 9. 12. 4. 3. 4. 3. 4. 3. 2. 3. 2. 3. 3. 3. 4.
      3. 3. 2. 2. 2. 3. 3. 3. 2. 3. 4. 3. 1.</_>
    <_>
      2. 1. 2. 3. 3. 3. 3. 3. 2. 1. 2. 3. 3. 3. 3. 3. 2. 1. 2. 2. 2. 2.
      3. 3. 2. 2. 2. 3. 4. 3. 3. 3. 2. 2. 4. 13. 20. 13. 2. 3. 2. 2. 14.
      53. 74. 45. 5. 3. 3. 3. 24. 107. 126. 84. 8. 3. 3. 2. 23. 130.
      134. 101. 8. 2. 3. 3. 30. 146. 147. 82. 6. 2. 3. 3. 49. 141. 131.
      75. 7. 2. 2. 3. 52. 105. 97. 82. 7. 2. 2. 1. 33. 48. 51. 51. 4. 2.
      3. 2. 10. 12. 15. 15. 3. 2. 3. 3. 3. 3. 4. 4. 3. 3. 2. 3. 3. 3. 4.
      3. 3. 2. 3. 3. 4. 2. 3. 2. 2. 2.</_>
    <_>
      1. 2. 3. 3. 2. 1. 1. 2. 2. 2. 2. 3. 2. 2. 1. 2. 3. 3. 2. 4. 2. 2.
      2. 2. 3. 3. 3. 6. 6. 4. 2. 2. 3. 3. 6. 25. 36. 25. 4. 2. 2. 2. 12.
      77. 107. 76. 15. 2. 2. 2. 13. 112. 135. 101. 20. 2. 2. 3. 17. 119.
      141. 105. 21. 2. 2. 3. 28. 130. 133. 98. 16. 2. 2. 2. 42. 122. 99.
      96. 15. 2. 3. 2. 35. 84. 62. 84. 15. 2. 2. 1. 14. 31. 24. 40. 7.
      2. 2. 2. 5. 6. 6. 9. 4. 2. 2. 3. 3. 3. 3. 3. 4. 2. 2. 2. 3. 3. 3.
      3. 3. 2. 2. 2. 4. 2. 3. 2. 2. 2.</_>
    <_>
      3. 3. 2. 2. 2. 3. 2. 1. 4. 4. 4. 2. 2. 2. 2. 3. 3. 4. 3. 2. 3. 2.
      2. 3. 3. 3. 6. 7. 9. 6. 3. 2. 2. 2. 14. 26. 31. 20. 4. 3. 2. 3.
      28. 70. 74. 63. 11. 3. 2. 4. 38. 122. 103. 110. 20. 3. 3. 3. 36.
      138. 117. 120. 24. 2. 3. 4. 46. 139. 122. 104. 20. 2. 3. 4. 65.
      125. 116. 97. 15. 2. 3. 5. 62. 95. 91. 89. 13. 3. 3. 4. 40. 57.
      52. 55. 8. 3. 2. 3. 16. 23. 18. 20. 4. 3. 2. 3. 5. 7. 6. 6. 3. 3.
      4. 2. 1. 3. 3. 3. 2. 2. 4. 2. 1. 4. 3. 3. 2. 2.</_>
    <_>
      2. 2. 2. 3. 2. 2. 3. 3. 4. 2. 2. 3. 2. 2. 2. 3. 3. 2. 4. 4. 3. 3.
      2. 3. 1. 3. 15. 17. 16. 7. 3. 3. 1. 10. 52. 58. 51. 23. 3. 3. 1.
      18. 103. 110. 94. 49. 6. 4. 1. 20. 120. 123. 104. 66. 6. 3. 2. 22.
      118. 131. 114. 55. 5. 2. 3. 29. 131. 127. 118. 43. 5. 2. 4. 32.
      122. 99. 128. 40. 3. 2. 3. 27. 85. 71. 123. 41. 3. 3. 2. 14. 40.
      37. 75. 26. 3. 2. 1. 6. 13. 12. 25. 10. 3. 2. 3. 3. 4. 4. 5. 4. 3.
      3. 3. 3. 3. 2. 2. 2. 2. 3. 4. 3. 3. 3. 2. 2. 3. 2.</_>
    <_>
      33. 44. 58. 62. 66. 63. 54. 32. 43. 58. 74. 76. 79. 76. 65. 39.
      60. 82. 100. 100. 100. 97. 84. 51. 73. 99. 118. 116. 114. 113. 97.
      62. 83. 113. 132. 130. 126. 127. 108. 71. 84. 119. 143. 140. 135.
      141. 119. 78. 86. 126. 152. 150. 144. 152. 127. 84. 93. 138. 159.
      158. 153. 154. 127. 85. 99. 145. 162. 159. 154. 153. 126. 84. 105.
      145. 161. 153. 150. 150. 124. 83. 110. 145. 151. 139. 142. 147.
      122. 82. 112. 143. 137. 123. 132. 144. 120. 80. 106. 129. 121.
      108. 119. 132. 113. 74. 96. 113. 104. 94. 105. 117. 102. 65. 82.
      92. 86. 80. 86. 95. 82. 55. 73. 80. 75. 72. 75. 81. 69. 48.</_>
    <_>
      10. 10. 17. 24. 26. 23. 16. 12. 9. 18. 33. 49. 50. 46. 25. 13. 9.
      26. 59. 82. 80. 74. 39. 14. 10. 32. 82. 111. 106. 98. 54. 16. 10.
      39. 98. 132. 127. 116. 68. 20. 10. 42. 105. 148. 143. 130. 78. 24.
      10. 42. 114. 158. 154. 138. 83. 25. 10. 44. 121. 160. 154. 141.
      86. 25. 11. 47. 126. 150. 144. 137. 86. 25. 11. 48. 123. 130. 127.
      128. 82. 26. 10. 47. 105. 109. 107. 113. 69. 26. 10. 41. 85. 85.
      84. 84. 54. 19. 9. 32. 59. 61. 59. 59. 41. 16. 8. 21. 36. 39. 36.
      37. 28. 12. 7. 12. 20. 22. 20. 21. 16. 9. 7. 10. 13. 15. 15. 16.
      12. 8.</_>
    <_>
      22. 45. 68. 73. 78. 71. 45. 27. 28. 55. 79. 86. 88. 82. 56. 33.
      37. 70. 98. 106. 106. 101. 74. 44. 43. 83. 114. 125. 123. 118. 93.
      54. 47. 92. 129. 143. 140. 134. 109. 61. 46. 93. 138. 156. 153.
      146. 111. 63. 45. 94. 146. 166. 164. 154. 113. 65. 48. 101. 151.
      168. 166. 158. 119. 66. 50. 105. 152. 164. 164. 158. 122. 67. 52.
      105. 150. 156. 156. 156. 120. 66. 52. 106. 144. 142. 145. 149.
      117. 66. 52. 105. 136. 127. 133. 141. 113. 66. 50. 98. 121. 111.
      116. 126. 106. 63. 47. 88. 104. 95. 97. 109. 95. 59. 41. 73. 84.
      77. 78. 86. 77. 53. 38. 63. 71. 65. 66. 72. 67. 50.</_>
    <_>
      16. 36. 54. 59. 58. 45. 17. 4. 25. 53. 77. 78. 76. 60. 25. 7. 36.
      75. 103. 102. 99. 77. 35. 10. 45. 93. 121. 120. 117. 91. 45. 12.
      48. 101. 138. 138. 135. 106. 54. 14. 51. 108. 151. 154. 150. 115.
      60. 16. 55. 118. 160. 164. 157. 118. 64. 20. 57. 122. 165. 163.
      156. 119. 64. 19. 59. 126. 159. 154. 149. 116. 62. 18. 60. 130.
      143. 136. 139. 110. 60. 16. 59. 117. 124. 117. 124. 100. 53. 16.
      54. 100. 103. 95. 103. 83. 45. 15. 45. 79. 81. 73. 78. 64. 38. 14.
      31. 53. 56. 50. 52. 47. 28. 10. 23. 37. 40. 36. 36. 35. 21. 8. 19.
      29. 32. 28. 29. 27. 16. 7.</_>
    <_>
      6. 14. 26. 31. 30. 24. 15. 7. 9. 21. 40. 48. 48. 38. 21. 9. 14.
      36. 64. 73. 73. 59. 33. 14. 24. 59. 93. 100. 99. 84. 51. 21. 33.
      83. 120. 125. 122. 108. 68. 27. 40. 97. 141. 145. 139. 127. 81.
      30. 39. 98. 154. 156. 153. 139. 86. 35. 40. 103. 162. 167. 162.
      147. 91. 37. 41. 106. 165. 168. 164. 150. 93. 38. 42. 108. 162.
      160. 159. 147. 91. 38. 43. 108. 153. 146. 149. 141. 90. 38. 43.
      104. 137. 127. 135. 132. 86. 36. 41. 95. 116. 102. 114. 116. 77.
      32. 34. 73. 84. 76. 85. 87. 62. 29. 25. 52. 62. 54. 62. 64. 46.
      23. 18. 37. 49. 39. 46. 50. 34. 16.</_>
    <_>
      30. 64. 90. 92. 89. 86. 74. 43. 35. 77. 105. 107. 105. 103. 90.
      51. 42. 93. 125. 127. 126. 127. 110. 61. 46. 100. 138. 142. 141.
      143. 122. 64. 50. 106. 147. 154. 156. 156. 129. 67. 53. 110. 154.
      165. 168. 165. 133. 69. 59. 115. 157. 165. 168. 166. 134. 69. 64.
      119. 155. 158. 164. 163. 133. 69. 69. 120. 147. 143. 154. 160.
      132. 70. 75. 118. 132. 126. 139. 149. 126. 67. 78. 110. 112. 109.
      119. 132. 116. 62. 62. 90. 92. 87. 98. 112. 100. 59. 47. 72. 75.
      68. 80. 94. 84. 55. 37. 59. 61. 54. 65. 77. 69. 48. 30. 43. 47.
      43. 49. 56. 52. 36. 25. 33. 38. 36. 37. 41. 40. 28.</_>
    <_>
      9. 12. 17. 27. 28. 14. 7. 4. 15. 24. 33. 48. 49. 25. 9. 4. 28. 52.
      64. 84. 86. 50. 14. 4. 64. 123. 132. 141. 151. 108. 32. 4. 82.
      161. 168. 156. 183. 142. 41. 4. 80. 161. 168. 132. 179. 147. 39.
      3. 72. 151. 171. 145. 174. 150. 43. 5. 71. 149. 170. 161. 171.
      144. 43. 6. 86. 168. 157. 164. 174. 121. 34. 6. 108. 173. 125.
      145. 170. 108. 29. 5. 128. 170. 89. 118. 162. 103. 26. 4. 126.
      163. 71. 95. 149. 106. 28. 4. 105. 134. 50. 68. 119. 98. 30. 5.
      67. 84. 28. 37. 75. 78. 28. 7. 40. 48. 18. 22. 44. 53. 24. 8. 22.
      26. 14. 13. 24. 34. 20. 8.</_>
    <_>
      5. 12. 14. 12. 14. 9. 7. 4. 14. 28. 35. 42. 41. 33. 12. 4. 24. 59.
      86. 101. 97. 76. 23. 4. 31. 90. 150. 162. 152. 123. 36. 6. 27. 89.
      171. 156. 142. 146. 45. 5. 23. 82. 172. 160. 140. 149. 54. 6. 23.
      87. 174. 166. 150. 140. 47. 7. 29. 105. 179. 163. 162. 129. 35. 7.
      37. 124. 178. 134. 149. 132. 50. 12. 40. 131. 164. 110. 147. 147.
      75. 18. 36. 108. 123. 83. 122. 125. 75. 19. 24. 63. 64. 50. 70.
      67. 47. 15. 11. 25. 21. 16. 21. 22. 16. 6. 6. 10. 8. 7. 8. 8. 7.
      5. 4. 6. 5. 5. 5. 5. 5. 5. 4. 4. 4. 3. 4. 5. 4. 4.</_>
    <_>
      4. 5. 5. 5. 5. 6. 6. 4. 9. 14. 15. 16. 16. 13. 9. 5. 19. 30. 33.
      38. 37. 29. 13. 6. 37. 58. 66. 82. 79. 62. 22. 7. 58. 97. 106.
      121. 117. 96. 31. 7. 78. 140. 150. 147. 147. 124. 40. 7. 79. 152.
      162. 139. 159. 138. 43. 8. 75. 154. 169. 137. 168. 142. 43. 8. 71.
      147. 182. 163. 178. 134. 44. 7. 73. 156. 179. 162. 161. 106. 35.
      7. 82. 171. 163. 148. 142. 81. 25. 8. 100. 175. 116. 131. 160.
      102. 31. 6. 108. 165. 86. 112. 162. 113. 33. 5. 102. 141. 74. 93.
      140. 105. 30. 5. 74. 101. 49. 55. 85. 71. 25. 5. 50. 71. 29. 27.
      42. 44. 22. 6.</_>
    <_>
      7. 6. 6. 6. 5. 4. 6. 6. 7. 7. 6. 6. 5. 5. 5. 6. 7. 8. 11. 12. 11.
      5. 5. 7. 7. 10. 29. 42. 40. 13. 6. 7. 8. 17. 85. 115. 105. 42. 8.
      7. 9. 25. 132. 162. 150. 79. 9. 6. 7. 20. 120. 160. 160. 82. 9. 5.
      6. 20. 125. 163. 164. 73. 9. 4. 6. 31. 144. 127. 160. 78. 8. 4. 7.
      34. 137. 98. 147. 70. 8. 4. 5. 24. 91. 62. 91. 34. 6. 4. 5. 14.
      41. 28. 35. 12. 5. 4. 5. 7. 10. 8. 9. 6. 5. 4. 5. 5. 4. 4. 5. 5.
      4. 3. 5. 4. 4. 4. 4. 4. 4. 3. 4. 4. 4. 4. 4. 4. 4. 3.</_>
    <_>
      3. 3. 3. 5. 4. 2. 2. 1. 3. 3. 4. 4. 3. 2. 2. 1. 3. 2. 3. 2. 1. 2.
      2. 1. 2. 2. 2. 2. 2. 1. 3. 2. 2. 2. 4. 14. 13. 7. 3. 3. 3. 2. 12.
      70. 67. 39. 3. 3. 2. 3. 17. 128. 124. 76. 2. 3. 2. 3. 16. 121.
      152. 70. 2. 2. 2. 2. 27. 116. 143. 49. 2. 2. 2. 2. 32. 92. 114.
      49. 2. 3. 2. 2. 15. 35. 51. 29. 2. 2. 3. 3. 4. 6. 11. 8. 2. 2. 3.
      3. 2. 3. 3. 3. 2. 2. 3. 2. 2. 4. 3. 3. 2. 2. 2. 2. 1. 2. 3. 3. 2.
      2. 2. 2. 1. 1. 3. 2. 2. 2.</_>
    <_>
      5. 7. 6. 7. 6. 6. 5. 5. 7. 8. 6. 7. 8. 7. 6. 5. 8. 8. 9. 12. 16.
      18. 9. 8. 7. 8. 22. 32. 42. 46. 18. 9. 7. 9. 48. 76. 74. 79. 30.
      9. 8. 11. 65. 104. 92. 99. 34. 9. 9. 13. 70. 129. 127. 116. 34. 8.
      7. 13. 72. 163. 155. 130. 34. 9. 8. 14. 73. 170. 142. 128. 31. 8.
      9. 14. 77. 146. 121. 106. 19. 9. 8. 15. 79. 113. 110. 95. 14. 9.
      10. 15. 83. 87. 86. 88. 12. 9. 12. 14. 66. 49. 46. 62. 12. 9. 14.
      14. 35. 27. 23. 32. 12. 9. 14. 9. 13. 14. 11. 12. 9. 7. 13. 8. 8.
      10. 8. 8. 9. 8.</_>
    <_>
      4. 3. 4. 4. 3. 3. 3. 3. 3. 3. 4. 4. 4. 4. 3. 3. 3. 4. 6. 8. 13.
      10. 4. 3. 4. 6. 21. 42. 60. 50. 12. 4. 4. 10. 66. 125. 131. 116.
      28. 5. 5. 14. 86. 163. 135. 135. 37. 4. 4. 12. 68. 163. 139. 137.
      31. 5. 4. 11. 74. 166. 152. 129. 32. 4. 4. 13. 93. 146. 132. 142.
      39. 5. 4. 16. 97. 125. 100. 146. 39. 5. 5. 13. 75. 93. 62. 90. 24.
      3. 4. 9. 33. 42. 30. 35. 11. 3. 3. 7. 13. 16. 14. 14. 6. 4. 3. 4.
      5. 4. 4. 4. 4. 3. 3. 4. 4. 3. 3. 3. 3. 3. 3. 4. 3. 3. 3. 3. 4. 3.</_>
    <_>
      3. 4. 4. 4. 4. 4. 3. 2. 3. 3. 3. 3. 3. 3. 3. 3. 3. 2. 4. 4. 3. 3.
      3. 3. 3. 3. 4. 6. 7. 3. 2. 2. 3. 4. 13. 22. 33. 7. 3. 2. 2. 6. 49.
      66. 83. 24. 3. 2. 2. 7. 79. 121. 135. 46. 3. 2. 2. 8. 98. 151.
      150. 58. 4. 3. 2. 11. 102. 139. 145. 48. 4. 3. 2. 13. 106. 111.
      146. 42. 4. 3. 3. 14. 93. 73. 127. 41. 4. 3. 3. 9. 48. 34. 74. 32.
      4. 3. 2. 3. 13. 9. 24. 14. 3. 3. 2. 2. 3. 3. 6. 5. 3. 3. 2. 2. 2.
      2. 3. 3. 3. 3. 1. 2. 3. 3. 2. 2. 3. 3.</_>
    <_>
      10. 10. 9. 10. 10. 10. 10. 13. 9. 10. 11. 12. 13. 10. 10. 13. 9.
      10. 14. 18. 23. 12. 10. 13. 11. 21. 41. 56. 62. 21. 11. 14. 12.
      44. 101. 114. 121. 39. 12. 14. 13. 63. 154. 149. 164. 57. 13. 15.
      15. 53. 159. 151. 173. 63. 14. 16. 14. 39. 154. 166. 178. 67. 15.
      16. 12. 42. 166. 154. 158. 58. 13. 15. 13. 61. 165. 124. 166. 68.
      13. 14. 12. 61. 156. 99. 157. 64. 13. 13. 12. 52. 120. 67. 114.
      41. 12. 11. 11. 35. 66. 36. 59. 20. 10. 9. 9. 16. 23. 18. 21. 10.
      11. 8. 8. 10. 11. 11. 11. 10. 10. 10. 7. 9. 9. 8. 10. 11. 10. 10.</_>
    <_>
      4. 3. 3. 4. 4. 4. 3. 3. 3. 3. 3. 5. 6. 4. 4. 3. 3. 3. 5. 11. 20.
      10. 4. 4. 4. 4. 17. 38. 57. 27. 3. 4. 5. 10. 50. 92. 96. 58. 7. 4.
      5. 14. 73. 127. 111. 75. 10. 4. 3. 18. 91. 150. 132. 74. 11. 4. 4.
      30. 129. 160. 145. 84. 14. 4. 5. 37. 139. 142. 135. 81. 15. 4. 5.
      33. 119. 111. 118. 50. 9. 3. 5. 34. 84. 76. 91. 33. 7. 2. 5. 29.
      53. 54. 65. 22. 5. 2. 7. 19. 27. 36. 38. 12. 4. 2. 7. 11. 9. 15.
      16. 4. 3. 2. 5. 6. 4. 5. 5. 3. 3. 2. 4. 3. 2. 4. 3. 3. 3. 1.</_></uncompressed_support_vectors>
  <decision_functions>
    <_>
      <sv_count>1</sv_count>
      <rho>-3.6692087600289063e+00</rho>
      <alpha>
        1.</alpha>
      <index>
        0</index></_></decision_functions></opencv_ml_svm>
</opencv_storage>
