<?xml version="1.0"?>
<opencv_storage>
<opencv_ml_svm>
  <format>3</format>
  <svmType>C_SVC</svmType>
  <kernel>
    <type>LINEAR</type></kernel>
  <C>1.</C>
  <term_criteria><iterations>1000</iterations></term_criteria>
  <var_count>128</var_count>
  <class_count>2</class_count>
  <class_labels type_id="opencv-matrix">
    <rows>2</rows>
    <cols>1</cols>
    <dt>i</dt>
    <data>
      0 1</data></class_labels>
  <sv_total>1</sv_total>
  <support_vectors>
    <_>
      9.11460444e-03 2.58050044e-03 -1.96910027e-04 1.58900861e-04
      1.74316354e-02 -9.66913905e-03 1.67516188e-03 1.84301604e-02
      2.60932348e-03 1.07334682e-03 -2.56509474e-03 4.71788313e-04
      -6.21550065e-03 -1.60008688e-02 -5.69844597e-05 1.90824717e-02
      4.35010437e-03 4.61944565e-03 3.82515253e-03 -8.24327755e-04
      -1.34304713e-03 2.00179638e-03 7.25335302e-03 -6.44308922e-04
      6.21174788e-03 7.83497654e-03 2.56190309e-03 -1.80071089e-02
      -3.46513209e-03 -5.04138973e-03 -6.81274178e-05 -6.64119376e-03
      7.31904758e-04 7.26217404e-03 1.00096094e-03 -4.10562102e-03
      7.21476413e-03 7.42999092e-03 2.09123082e-02 -1.37726506e-02
      1.19864701e-04 6.49196887e-03 -2.77109421e-03 1.01972772e-02
      1.29820472e-02 -7.16126477e-03 1.62585247e-02 2.45795841e-03
      1.78098620e-03 -4.18038049e-04 -3.62835475e-03 5.07885544e-03
      1.09428656e-03 7.38900108e-03 -2.89320527e-03 -6.92390511e-03
      1.33284437e-03 5.46856725e-04 4.99796402e-03 -6.34834520e-04
      -4.68332693e-03 6.55084057e-03 8.57151113e-03 9.90906148e-04
      -4.50854283e-03 -9.75949690e-03 -9.61505622e-03 6.24097791e-03
      3.06118815e-03 2.07830104e-03 4.13231783e-06 3.44187138e-04
      -1.25721153e-02 9.42138897e-04 1.01802526e-02 -1.08762244e-02
      -1.04401773e-02 -9.20464518e-04 7.98543636e-03 -4.18836670e-03
      -6.00025523e-03 4.87795426e-03 5.32820215e-03 1.01099508e-02
      -1.25471095e-03 3.24871228e-03 6.74578827e-03 -6.67407550e-03
      -6.98585669e-03 -5.45835868e-03 4.04415140e-03 -6.94235647e-03
      -7.21628871e-03 4.46283957e-03 -2.09638989e-03 9.80670797e-04
      -1.43336132e-03 -2.11085100e-03 -1.08492747e-03 -1.15071274e-02
      -2.10510363e-04 4.58978768e-03 8.08262266e-03 -2.29375553e-03
      6.29686750e-03 -1.29901925e-02 1.12636620e-02 -6.68358756e-04
      5.16586844e-03 1.04966760e-02 1.02712645e-03 3.73237330e-04
      1.39209954e-03 6.84439763e-03 -8.88889842e-03 -3.81035591e-03
      -1.10241154e-03 2.32373690e-03 9.57900845e-03 1.83630437e-02
      5.42740105e-03 1.20541807e-02 -6.30984223e-03 -1.20081380e-02
      -1.36921527e-02 -2.95949820e-03 2.87225842e-03 3.60735646e-03</_></support_vectors>
  <uncompressed_sv_total>73</uncompressed_sv_total>
  <uncompressed_support_vectors>
    <_>
      30. 23. 9. 2. 0. 0. 0. 0. 5. 1. 0. 0. 0. 0. 0. 0. 1. 7. 19. 23.
      13. 0. 0. 0. 12. 24. 50. 71. 42. 6. 0. 0. 31. 44. 111. 138. 93.
      24. 0. 0. 63. 75. 167. 182. 146. 51. 6. 0. 78. 116. 191. 192. 162.
      66. 10. 0. 64. 135. 196. 194. 165. 70. 7. 2. 54. 129. 190. 185.
      160. 68. 7. 0. 43. 116. 180. 177. 139. 44. 4. 0. 39. 86. 153. 157.
      102. 22. 0. 0. 37. 40. 98. 105. 60. 13. 0. 0. 33. 19. 47. 48. 21.
      1. 0. 0. 30. 20. 21. 9. 0. 0. 0. 0. 33. 21. 4. 0. 0. 0. 0. 0. 56.
      53. 19. 0. 0. 0. 3. 0.</_>
    <_>
      5. 2. 3. 3. 27. 9. 4. 18. 2. 2. 2. 3. 3. 4. 3. 24. 1. 2. 2. 3. 4.
      4. 10. 15. 2. 2. 2. 2. 49. 40. 23. 14. 2. 2. 2. 2. 22. 82. 72. 36.
      2. 2. 17. 33. 24. 48. 52. 33. 2. 2. 33. 8. 40. 30. 26. 12. 2. 9.
      19. 2. 3. 2. 5. 2. 2. 24. 3. 2. 2. 2. 2. 2. 2. 25. 2. 2. 2. 2. 2.
      2. 4. 23. 2. 2. 2. 2. 2. 2. 18. 8. 2. 2. 2. 2. 2. 2. 25. 3. 2. 2.
      2. 2. 2. 2. 8. 2. 2. 2. 2. 2. 2. 2. 2. 2. 2. 1. 2. 2. 2. 2. 2. 1.
      1. 1. 2. 1. 1. 1.</_>
    <_>
      3. 2. 3. 3. 20. 13. 4. 22. 2. 2. 2. 3. 4. 3. 3. 21. 2. 2. 2. 4. 7.
      5. 7. 20. 2. 2. 2. 2. 44. 38. 20. 15. 2. 2. 2. 2. 27. 72. 54. 24.
      2. 2. 6. 10. 46. 46. 68. 38. 2. 2. 29. 19. 49. 24. 29. 8. 2. 7.
      13. 2. 2. 2. 4. 2. 2. 17. 2. 2. 2. 2. 2. 2. 2. 18. 2. 2. 2. 2. 2.
      2. 3. 17. 2. 2. 2. 2. 2. 2. 17. 4. 2. 2. 2. 2. 2. 2. 16. 2. 2. 2.
      2. 2. 2. 2. 3. 2. 1. 1. 1. 2. 2. 2. 1. 2. 2. 2. 1. 1. 1. 1. 1. 1.
      1. 1. 1. 1. 1. 1.</_>
    <_>
      3. 2. 3. 3. 12. 14. 4. 24. 4. 2. 3. 3. 6. 4. 3. 15. 2. 2. 4. 3.
      17. 9. 7. 15. 2. 2. 2. 3. 29. 40. 25. 18. 2. 2. 2. 2. 21. 113. 89.
      40. 2. 2. 14. 33. 40. 22. 27. 33. 2. 2. 30. 8. 10. 24. 27. 9. 2.
      6. 22. 2. 2. 2. 2. 2. 2. 25. 3. 2. 2. 2. 2. 2. 2. 26. 2. 2. 2. 2.
      2. 2. 4. 24. 2. 2. 2. 2. 2. 2. 23. 5. 2. 2. 2. 2. 2. 2. 15. 2. 2.
      2. 2. 2. 2. 2. 2. 2. 2. 2. 2. 1. 2. 2. 2. 2. 2. 2. 1. 1. 1. 1. 2.
      2. 1. 1. 1. 1. 1. 1.</_>
    <_>
      3. 4. 3. 4. 3. 2. 2. 5. 3. 4. 5. 5. 4. 2. 2. 7. 3. 40. 42. 7. 6.
      5. 4. 3. 3. 56. 83. 56. 52. 52. 23. 4. 3. 33. 37. 9. 10. 12. 32.
      5. 3. 30. 34. 5. 4. 3. 27. 5. 3. 26. 45. 32. 9. 4. 16. 18. 4. 25.
      63. 153. 107. 53. 20. 21. 5. 27. 51. 126. 158. 158. 141. 26. 8.
      27. 36. 13. 44. 95. 144. 29. 13. 49. 40. 4. 4. 6. 28. 19. 6. 78.
      65. 15. 3. 3. 19. 12. 3. 9. 31. 52. 28. 4. 36. 3. 3. 3. 3. 8. 39.
      46. 20. 3. 2. 2. 2. 2. 3. 21. 3. 2. 2. 3. 3. 2. 2. 3. 3. 2.</_>
    <_>
      3. 2. 3. 2. 2. 2. 2. 2. 3. 7. 6. 2. 2. 2. 2. 2. 3. 4. 45. 15. 2.
      3. 2. 2. 3. 9. 43. 64. 4. 3. 3. 3. 3. 43. 8. 42. 14. 3. 3. 3. 4.
      38. 5. 49. 22. 4. 3. 3. 6. 56. 44. 90. 11. 21. 4. 9. 12. 33. 50.
      95. 32. 22. 7. 6. 4. 4. 20. 25. 105. 4. 22. 3. 3. 3. 14. 10. 99.
      35. 19. 5. 3. 3. 3. 23. 25. 110. 19. 4. 2. 2. 2. 19. 5. 100. 52.
      5. 2. 2. 2. 5. 27. 31. 48. 4. 2. 2. 2. 2. 12. 27. 6. 42. 2. 2. 2.
      3. 2. 2. 4. 74. 2. 2. 2. 2. 2. 2. 3. 5.</_>
    <_>
      2. 2. 3. 2. 2. 2. 2. 2. 3. 3. 3. 2. 2. 2. 2. 2. 3. 6. 38. 17. 2.
      3. 2. 2. 3. 6. 43. 55. 3. 3. 3. 2. 3. 42. 12. 36. 16. 3. 3. 3. 4.
      35. 5. 55. 22. 4. 3. 3. 4. 58. 40. 86. 10. 18. 3. 6. 15. 33. 50.
      87. 30. 20. 6. 9. 4. 5. 22. 21. 100. 6. 22. 2. 3. 3. 11. 11. 96.
      28. 20. 4. 3. 4. 3. 21. 25. 96. 22. 4. 2. 2. 2. 19. 5. 105. 43. 4.
      2. 2. 2. 5. 28. 41. 41. 4. 2. 2. 2. 2. 7. 22. 7. 35. 2. 2. 2. 2.
      2. 2. 12. 70. 2. 2. 2. 2. 2. 2. 3. 4.</_>
    <_>
      2. 2. 2. 2. 2. 2. 2. 2. 2. 3. 3. 2. 2. 2. 2. 2. 3. 3. 34. 22. 3.
      3. 2. 2. 3. 9. 49. 54. 4. 3. 3. 2. 3. 50. 9. 36. 15. 3. 3. 3. 4.
      37. 8. 56. 21. 3. 3. 3. 4. 49. 49. 93. 12. 13. 4. 4. 16. 28. 39.
      88. 32. 22. 8. 14. 12. 13. 21. 20. 99. 8. 21. 4. 4. 4. 11. 12.
      103. 22. 17. 4. 3. 4. 4. 22. 36. 90. 19. 4. 2. 2. 2. 21. 5. 111.
      30. 4. 2. 2. 2. 8. 27. 57. 39. 4. 2. 2. 2. 2. 10. 26. 10. 15. 2.
      2. 2. 2. 3. 2. 37. 62. 2. 2. 2. 2. 2. 2. 6. 9.</_>
    <_>
      2. 2. 2. 2. 2. 2. 2. 0. 2. 2. 2. 3. 2. 2. 2. 1. 3. 3. 38. 29. 3.
      2. 2. 2. 3. 11. 49. 60. 6. 3. 2. 2. 3. 52. 10. 29. 25. 3. 3. 3. 3.
      37. 8. 62. 22. 4. 2. 3. 4. 45. 52. 96. 11. 15. 3. 4. 16. 22. 41.
      89. 31. 22. 8. 15. 13. 12. 22. 25. 94. 9. 20. 5. 3. 3. 14. 9. 107.
      19. 18. 4. 3. 4. 4. 20. 45. 81. 21. 4. 2. 2. 2. 23. 6. 117. 24. 4.
      2. 2. 2. 10. 24. 63. 36. 4. 2. 2. 2. 2. 13. 24. 8. 7. 2. 2. 2. 2.
      2. 3. 41. 56. 2. 2. 2. 2. 2. 2. 11. 17.</_>
    <_>
      2. 2. 2. 2. 2. 2. 2. 1. 2. 2. 2. 2. 2. 2. 2. 2. 3. 3. 34. 26. 3.
      2. 2. 2. 3. 9. 47. 59. 4. 3. 2. 2. 3. 56. 8. 29. 23. 3. 3. 2. 3.
      39. 10. 59. 22. 3. 2. 3. 4. 52. 51. 88. 12. 13. 3. 3. 12. 21. 40.
      99. 20. 24. 7. 14. 18. 15. 18. 34. 87. 11. 18. 6. 3. 3. 16. 8.
      112. 11. 20. 3. 3. 3. 4. 22. 60. 66. 21. 4. 2. 3. 3. 18. 10. 119.
      21. 3. 2. 2. 2. 14. 15. 84. 29. 4. 2. 2. 2. 2. 18. 30. 6. 5. 2. 2.
      2. 2. 2. 3. 45. 42. 2. 2. 2. 2. 2. 2. 20. 20.</_>
    <_>
      2. 2. 3. 2. 2. 2. 2. 2. 2. 8. 13. 10. 11. 18. 10. 2. 4. 63. 69.
      57. 58. 64. 59. 3. 7. 85. 4. 3. 4. 11. 81. 4. 10. 54. 15. 17. 19.
      23. 57. 5. 6. 62. 63. 103. 98. 60. 59. 5. 4. 28. 4. 103. 85. 4.
      32. 4. 6. 27. 4. 104. 87. 4. 26. 5. 10. 24. 4. 102. 92. 6. 30. 10.
      16. 23. 5. 102. 95. 16. 29. 16. 20. 14. 5. 103. 96. 6. 13. 22. 26.
      13. 4. 96. 98. 4. 11. 27. 8. 34. 6. 100. 102. 7. 38. 10. 4. 14.
      32. 95. 105. 36. 17. 5. 2. 6. 29. 61. 59. 29. 6. 3. 2. 4. 9. 19.
      17. 10. 4. 3.</_>
    <_>
      2. 2. 2. 2. 2. 2. 2. 2. 2. 10. 26. 20. 22. 27. 18. 2. 3. 42. 55.
      45. 48. 47. 60. 3. 4. 73. 25. 3. 3. 6. 93. 6. 4. 88. 8. 3. 3. 12.
      88. 4. 5. 66. 59. 57. 61. 62. 70. 4. 4. 31. 15. 92. 82. 15. 30. 4.
      4. 35. 4. 94. 77. 4. 24. 4. 5. 27. 4. 100. 80. 4. 28. 4. 8. 28. 4.
      100. 79. 13. 32. 5. 14. 24. 5. 106. 78. 13. 27. 6. 19. 18. 4. 104.
      73. 4. 26. 12. 15. 32. 4. 108. 77. 4. 35. 9. 4. 30. 19. 113. 84.
      32. 24. 5. 3. 6. 30. 66. 56. 30. 6. 3. 2. 3. 4. 5. 6. 3. 2. 2.</_>
    <_>
      2. 2. 3. 2. 2. 2. 2. 2. 2. 12. 33. 29. 27. 30. 26. 3. 3. 45. 45.
      44. 42. 42. 64. 5. 4. 88. 18. 4. 4. 5. 89. 7. 4. 60. 47. 47. 47.
      45. 66. 12. 3. 53. 56. 83. 104. 57. 64. 7. 3. 32. 7. 78. 88. 8.
      28. 4. 4. 29. 4. 87. 94. 5. 24. 5. 5. 26. 4. 86. 96. 4. 28. 6. 9.
      28. 4. 97. 98. 13. 30. 8. 15. 25. 4. 97. 94. 9. 22. 13. 24. 15. 4.
      94. 92. 5. 15. 25. 12. 30. 4. 100. 92. 4. 32. 13. 5. 23. 24. 104.
      96. 25. 25. 5. 3. 6. 25. 55. 50. 22. 6. 3. 2. 2. 4. 5. 5. 3. 2. 2.</_>
    <_>
      2. 2. 2. 2. 2. 2. 2. 2. 2. 2. 2. 2. 3. 2. 2. 2. 2. 2. 2. 3. 54.
      25. 2. 3. 3. 3. 3. 20. 42. 51. 25. 2. 3. 3. 3. 24. 8. 6. 71. 3. 3.
      3. 4. 40. 41. 5. 37. 3. 3. 4. 11. 16. 83. 47. 46. 4. 4. 5. 23. 18.
      93. 43. 10. 7. 9. 24. 22. 69. 41. 17. 3. 5. 4. 22. 6. 107. 8. 17.
      3. 2. 5. 19. 37. 82. 16. 5. 2. 2. 4. 21. 95. 21. 17. 2. 2. 2. 4.
      26. 102. 10. 20. 2. 2. 2. 3. 8. 39. 21. 3. 2. 2. 2. 17. 32. 3. 3.
      2. 3. 3. 2. 26. 41. 3. 2. 2. 2. 2. 2.</_>
    <_>
      2. 2. 2. 2. 3. 3. 2. 2. 3. 3. 3. 3. 3. 3. 2. 3. 3. 3. 3. 5. 14.
      40. 3. 3. 3. 3. 4. 4. 60. 40. 11. 3. 3. 4. 4. 8. 46. 6. 41. 6. 5.
      8. 5. 23. 44. 7. 48. 26. 12. 19. 22. 11. 82. 42. 48. 6. 4. 10. 23.
      27. 102. 48. 34. 3. 4. 24. 6. 103. 28. 29. 4. 2. 5. 20. 37. 96.
      10. 15. 3. 2. 5. 19. 108. 20. 20. 3. 2. 2. 4. 63. 80. 8. 16. 3. 2.
      2. 4. 44. 16. 23. 3. 2. 2. 2. 70. 7. 25. 14. 2. 2. 2. 3. 48. 4. 3.
      3. 3. 2. 2. 2. 3. 3. 2. 2. 3. 2. 2. 2.</_>
    <_>
      4. 2. 3. 3. 46. 7. 3. 14. 2. 2. 2. 3. 3. 3. 2. 16. 2. 2. 2. 3. 3.
      2. 4. 9. 2. 2. 2. 3. 47. 35. 25. 14. 2. 2. 2. 2. 24. 59. 50. 29.
      2. 2. 9. 16. 21. 81. 86. 41. 2. 2. 38. 26. 49. 31. 12. 14. 2. 5.
      21. 2. 5. 7. 18. 2. 2. 23. 3. 2. 2. 2. 1. 1. 2. 26. 2. 2. 2. 2. 2.
      2. 3. 24. 2. 2. 2. 2. 2. 2. 14. 12. 2. 2. 2. 2. 2. 2. 25. 2. 2. 2.
      2. 2. 2. 2. 15. 2. 2. 2. 2. 2. 2. 2. 3. 2. 2. 2. 2. 2. 1. 1. 2. 2.
      2. 2. 2. 1. 1. 1.</_>
    <_>
      2. 2. 3. 4. 3. 3. 3. 3. 2. 2. 3. 9. 7. 3. 3. 3. 3. 2. 3. 4. 5. 38.
      3. 4. 3. 3. 4. 4. 44. 49. 15. 6. 4. 7. 4. 8. 45. 7. 46. 22. 11.
      17. 6. 27. 39. 7. 45. 5. 5. 5. 24. 9. 73. 37. 41. 4. 4. 15. 14.
      32. 106. 46. 56. 2. 5. 22. 8. 113. 25. 38. 8. 2. 8. 22. 69. 72.
      13. 14. 3. 2. 8. 39. 111. 8. 21. 3. 3. 2. 5. 84. 32. 14. 12. 2. 2.
      3. 38. 28. 20. 26. 3. 2. 3. 3. 65. 8. 24. 11. 3. 2. 3. 3. 7. 3. 3.
      2. 1. 2. 2. 2. 3. 2. 2. 3. 1. 2. 2. 2.</_>
    <_>
      2. 2. 2. 2. 2. 2. 2. 2. 2. 2. 2. 2. 3. 3. 3. 2. 2. 2. 3. 3. 22.
      43. 2. 3. 3. 3. 3. 5. 61. 42. 14. 3. 3. 3. 4. 24. 37. 6. 56. 4. 3.
      4. 4. 23. 60. 10. 44. 6. 6. 9. 19. 10. 97. 57. 49. 22. 14. 22. 22.
      37. 81. 37. 13. 5. 3. 25. 7. 94. 25. 18. 3. 3. 4. 20. 8. 107. 7.
      17. 3. 3. 4. 20. 60. 62. 17. 6. 3. 2. 4. 24. 112. 8. 20. 3. 3. 2.
      3. 35. 72. 17. 14. 3. 2. 2. 9. 8. 27. 16. 2. 2. 2. 2. 64. 23. 2.
      1. 3. 2. 2. 2. 11. 6. 3. 2. 2. 3. 2. 2.</_>
    <_>
      3. 4. 3. 4. 3. 4. 4. 4. 3. 4. 4. 4. 4. 5. 4. 4. 3. 4. 4. 4. 6. 42.
      21. 13. 11. 13. 5. 5. 26. 57. 41. 12. 8. 8. 5. 12. 49. 6. 32. 4.
      4. 3. 13. 29. 31. 13. 35. 4. 3. 11. 31. 6. 68. 40. 40. 4. 5. 23.
      5. 40. 122. 44. 56. 4. 6. 24. 20. 133. 32. 48. 37. 3. 7. 23. 116.
      60. 9. 28. 4. 3. 5. 97. 92. 4. 24. 4. 2. 2. 18. 73. 10. 14. 14. 3.
      3. 3. 45. 25. 26. 26. 3. 2. 3. 3. 13. 4. 16. 6. 3. 2. 2. 2. 3. 2.
      2. 2. 2. 2. 2. 2. 3. 2. 2. 3. 2. 2. 2. 2.</_>
    <_>
      15. 4. 4. 4. 4. 6. 10. 5. 6. 3. 4. 4. 4. 4. 4. 3. 5. 3. 4. 3. 5.
      30. 40. 3. 6. 2. 3. 6. 33. 36. 42. 2. 4. 5. 24. 40. 30. 28. 32. 2.
      6. 20. 25. 6. 7. 38. 33. 3. 5. 23. 3. 5. 46. 48. 31. 3. 6. 22. 8.
      77. 149. 55. 32. 5. 9. 23. 96. 156. 61. 40. 31. 10. 7. 127. 140.
      42. 5. 40. 47. 5. 5. 112. 24. 3. 13. 46. 14. 11. 4. 23. 3. 10. 31.
      4. 3. 12. 3. 34. 15. 35. 5. 2. 2. 3. 2. 6. 37. 10. 2. 2. 2. 2. 1.
      2. 3. 2. 2. 2. 2. 2. 1. 2. 3. 2. 3. 2. 2. 2.</_>
    <_>
      12. 3. 4. 4. 4. 6. 9. 4. 5. 3. 4. 4. 3. 4. 4. 3. 3. 3. 3. 3. 4.
      32. 35. 2. 4. 3. 3. 7. 36. 36. 38. 2. 3. 6. 25. 40. 34. 27. 32. 3.
      4. 25. 23. 6. 8. 35. 30. 3. 5. 24. 4. 5. 46. 47. 31. 3. 7. 23. 9.
      73. 155. 58. 34. 5. 14. 20. 100. 155. 70. 42. 32. 11. 12. 124.
      141. 49. 6. 41. 43. 7. 7. 124. 26. 4. 10. 60. 19. 3. 5. 28. 3. 7.
      28. 8. 3. 2. 3. 34. 9. 34. 8. 2. 2. 2. 2. 8. 40. 11. 2. 2. 2. 2.
      2. 2. 4. 2. 2. 2. 2. 2. 1. 2. 2. 2. 2. 2. 2. 2.</_>
    <_>
      2. 2. 2. 2. 2. 3. 2. 1. 2. 3. 3. 3. 4. 3. 3. 2. 7. 14. 32. 26. 29.
      27. 14. 2. 27. 88. 165. 138. 140. 127. 48. 2. 16. 113. 202. 162.
      143. 136. 38. 2. 2. 36. 60. 41. 30. 26. 9. 3. 2. 5. 6. 15. 41. 21.
      31. 3. 2. 4. 5. 47. 170. 91. 116. 5. 2. 4. 8. 64. 236. 115. 138.
      7. 2. 4. 8. 84. 205. 87. 106. 4. 2. 4. 6. 66. 115. 52. 34. 2. 2.
      4. 12. 27. 46. 45. 5. 3. 2. 5. 61. 69. 135. 130. 6. 3. 2. 4. 38.
      36. 72. 57. 4. 2. 2. 3. 6. 5. 7. 7. 3. 2. 2. 2. 3. 3. 4. 3. 2. 2.</_>
    <_>
      2. 2. 2. 3. 4. 6. 5. 3. 3. 4. 3. 4. 18. 9. 5. 2. 2. 3. 4. 31. 58.
      113. 22. 3. 2. 3. 14. 34. 63. 99. 35. 3. 2. 3. 33. 12. 114. 49.
      36. 4. 2. 3. 36. 7. 152. 12. 36. 3. 3. 3. 36. 23. 142. 6. 38. 3.
      3. 4. 33. 71. 96. 27. 19. 2. 3. 11. 31. 121. 43. 38. 4. 2. 3. 48.
      75. 154. 13. 40. 2. 2. 3. 57. 31. 103. 72. 18. 2. 2. 4. 53. 5. 6.
      56. 7. 2. 2. 4. 86. 53. 8. 57. 4. 2. 2. 3. 6. 30. 89. 38. 3. 2. 2.
      2. 3. 3. 6. 4. 2. 2. 2. 2. 2. 2. 2. 2. 2. 2. 2.</_>
    <_>
      3. 4. 7. 8. 6. 4. 3. 3. 3. 6. 24. 48. 38. 6. 4. 3. 4. 26. 59. 155.
      41. 38. 6. 4. 5. 51. 21. 171. 17. 47. 22. 4. 15. 38. 11. 168. 22.
      14. 38. 4. 11. 44. 9. 156. 47. 13. 37. 4. 5. 41. 8. 143. 61. 11.
      37. 3. 4. 44. 8. 120. 76. 11. 34. 4. 4. 43. 10. 99. 108. 11. 33.
      5. 3. 33. 16. 84. 121. 11. 32. 5. 3. 16. 63. 95. 144. 92. 72. 5.
      3. 27. 85. 49. 26. 11. 57. 4. 3. 9. 76. 5. 5. 6. 62. 4. 3. 4. 58.
      52. 76. 91. 85. 4. 2. 2. 38. 45. 10. 10. 7. 2. 2. 3. 3. 4. 3. 3.
      3. 2.</_>
    <_>
      4. 14. 5. 4. 3. 3. 3. 4. 4. 7. 10. 8. 4. 4. 3. 2. 4. 12. 70. 54.
      11. 4. 3. 3. 5. 37. 130. 20. 39. 4. 3. 3. 4. 36. 96. 56. 34. 5. 3.
      3. 4. 31. 38. 115. 21. 20. 4. 3. 4. 37. 11. 142. 13. 33. 4. 3. 4.
      20. 24. 110. 50. 35. 5. 3. 3. 4. 38. 48. 108. 33. 8. 3. 3. 4. 32.
      16. 140. 85. 34. 3. 3. 4. 9. 50. 97. 14. 48. 3. 3. 3. 5. 65. 11.
      6. 51. 3. 2. 2. 3. 50. 17. 60. 54. 3. 3. 2. 3. 14. 90. 29. 3. 2.
      2. 2. 3. 3. 9. 3. 2. 2. 2. 2. 2. 3. 2. 2. 2. 2.</_>
    <_>
      8. 30. 5. 4. 3. 3. 2. 3. 4. 7. 9. 6. 3. 4. 3. 2. 4. 11. 65. 48. 7.
      4. 3. 2. 5. 40. 131. 21. 37. 4. 3. 3. 4. 32. 109. 41. 36. 5. 3. 2.
      4. 34. 49. 104. 24. 16. 4. 3. 4. 38. 13. 140. 14. 32. 5. 3. 4. 25.
      19. 115. 40. 34. 5. 3. 4. 6. 39. 53. 103. 38. 8. 3. 3. 4. 34. 16.
      142. 88. 38. 3. 3. 4. 11. 46. 102. 18. 51. 3. 3. 3. 4. 70. 13. 6.
      51. 3. 2. 2. 4. 50. 17. 53. 51. 4. 2. 2. 3. 12. 91. 32. 4. 3. 2.
      2. 2. 3. 14. 4. 2. 2. 2. 2. 2. 2. 3. 2. 2. 2.</_>
    <_>
      47. 19. 80. 37. 6. 5. 4. 3. 45. 20. 96. 30. 6. 5. 4. 3. 13. 15.
      34. 31. 14. 6. 5. 3. 4. 57. 26. 30. 33. 37. 16. 19. 4. 7. 32. 138.
      87. 51. 50. 9. 4. 8. 30. 28. 40. 106. 33. 20. 4. 29. 100. 38. 33.
      51. 43. 9. 4. 27. 92. 21. 6. 10. 39. 5. 4. 26. 90. 21. 5. 4. 4. 3.
      3. 24. 94. 22. 4. 4. 3. 2. 3. 25. 90. 27. 4. 4. 3. 2. 3. 26. 113.
      53. 3. 3. 2. 2. 3. 27. 14. 34. 3. 2. 2. 2. 3. 19. 63. 48. 3. 2. 2.
      2. 2. 4. 9. 4. 2. 2. 2. 2. 2. 2. 3. 3. 2. 2. 2. 2.</_>
    <_>
      3. 3. 3. 3. 3. 3. 3. 2. 3. 3. 3. 8. 10. 4. 4. 3. 3. 3. 4. 42. 81.
      48. 9. 4. 4. 4. 5. 56. 9. 43. 82. 4. 4. 5. 12. 75. 11. 8. 52. 4.
      15. 8. 22. 54. 120. 54. 49. 5. 6. 6. 40. 21. 140. 56. 33. 6. 5. 8.
      35. 57. 104. 32. 8. 4. 6. 23. 24. 107. 54. 36. 6. 5. 6. 38. 12.
      145. 18. 36. 6. 5. 7. 38. 22. 138. 12. 36. 6. 5. 9. 40. 62. 96.
      18. 27. 7. 6. 8. 40. 107. 52. 50. 15. 8. 7. 16. 19. 81. 61. 24.
      40. 39. 26. 21. 12. 13. 17. 46. 28. 19. 38. 8. 77. 50. 24. 48. 26.
      22. 20.</_>
    <_>
      80. 31. 5. 4. 4. 3. 3. 3. 84. 26. 7. 5. 5. 6. 8. 3. 85. 27. 15.
      12. 32. 56. 37. 3. 95. 35. 34. 36. 19. 52. 33. 4. 42. 34. 35. 96.
      139. 68. 41. 5. 52. 26. 138. 64. 19. 49. 30. 13. 29. 13. 45. 36.
      32. 6. 4. 4. 8. 39. 41. 14. 7. 4. 4. 4. 10. 128. 33. 32. 7. 5. 4.
      3. 10. 55. 106. 33. 8. 5. 3. 2. 7. 36. 125. 37. 12. 5. 3. 2. 6.
      37. 62. 84. 50. 5. 3. 2. 4. 9. 36. 120. 53. 6. 3. 2. 3. 5. 50. 26.
      48. 14. 3. 2. 2. 4. 14. 64. 35. 3. 2. 2. 2. 3. 4. 20. 4. 2. 2. 2.</_>
    <_>
      2. 3. 3. 3. 2. 2. 6. 3. 2. 3. 5. 3. 3. 3. 3. 3. 2. 13. 68. 7. 3.
      3. 3. 2. 3. 41. 50. 51. 4. 3. 3. 3. 3. 46. 6. 76. 26. 4. 3. 3. 3.
      52. 17. 48. 46. 28. 4. 3. 5. 55. 53. 100. 10. 47. 22. 4. 6. 60.
      59. 167. 61. 8. 32. 6. 3. 43. 65. 43. 176. 32. 32. 7. 3. 6. 51.
      14. 78. 152. 40. 10. 2. 3. 8. 42. 9. 119. 118. 10. 2. 3. 3. 29.
      26. 16. 85. 24. 2. 3. 3. 4. 45. 34. 41. 60. 3. 5. 3. 3. 15. 32. 8.
      16. 9. 4. 3. 2. 2. 3. 3. 3. 3. 2. 3. 2. 2. 3. 3. 3.</_>
    <_>
      3. 4. 4. 4. 5. 6. 5. 4. 3. 4. 4. 6. 6. 27. 9. 5. 3. 4. 6. 7. 40.
      63. 39. 6. 4. 4. 13. 40. 55. 12. 54. 10. 4. 28. 87. 51. 10. 9. 28.
      15. 13. 70. 70. 12. 10. 16. 74. 24. 41. 45. 44. 14. 52. 142. 185.
      26. 6. 44. 46. 117. 189. 188. 110. 23. 4. 38. 45. 195. 151. 51.
      15. 25. 4. 42. 40. 80. 19. 9. 27. 9. 4. 40. 31. 21. 9. 8. 30. 5.
      3. 42. 22. 37. 20. 25. 31. 3. 3. 43. 45. 91. 62. 59. 18. 4. 3. 46.
      79. 30. 10. 6. 5. 3. 2. 7. 7. 6. 5. 5. 4. 3. 3. 4. 5. 5. 4. 4. 4.
      3.</_>
    <_>
      2. 4. 8. 9. 5. 5. 7. 3. 3. 21. 63. 51. 5. 3. 2. 2. 3. 65. 102. 67.
      3. 3. 2. 2. 3. 61. 26. 62. 3. 3. 3. 3. 2. 59. 6. 60. 4. 4. 4. 4.
      3. 55. 5. 62. 8. 11. 13. 26. 3. 52. 5. 85. 56. 70. 70. 87. 3. 53.
      5. 91. 106. 94. 110. 95. 3. 52. 5. 98. 84. 78. 68. 72. 4. 52. 5.
      75. 22. 17. 11. 12. 4. 55. 4. 58. 6. 4. 4. 4. 3. 57. 6. 56. 3. 3.
      4. 2. 2. 61. 27. 55. 4. 4. 3. 2. 2. 70. 101. 66. 4. 4. 6. 3. 2.
      30. 60. 41. 3. 2. 3. 2. 2. 4. 8. 7. 2. 2. 2. 3.</_>
    <_>
      2. 2. 2. 3. 2. 3. 4. 4. 2. 2. 3. 3. 3. 4. 3. 3. 2. 3. 8. 9. 4. 3.
      2. 3. 3. 9. 64. 50. 3. 3. 3. 4. 3. 57. 88. 60. 4. 4. 8. 25. 9. 63.
      13. 60. 6. 14. 54. 98. 52. 62. 5. 62. 47. 78. 95. 89. 18. 55. 5.
      79. 107. 94. 64. 19. 3. 48. 5. 75. 82. 25. 10. 3. 3. 52. 5. 60.
      12. 5. 4. 3. 2. 51. 5. 54. 4. 3. 3. 3. 3. 57. 7. 53. 5. 4. 4. 2.
      2. 56. 36. 72. 4. 3. 2. 2. 2. 42. 103. 76. 3. 2. 2. 2. 2. 7. 19.
      13. 2. 2. 2. 2. 2. 3. 4. 5. 3. 2. 2. 2.</_>
    <_>
      2. 3. 3. 3. 2. 4. 4. 3. 2. 3. 5. 5. 4. 5. 2. 2. 2. 5. 35. 36. 4.
      3. 3. 3. 2. 45. 101. 62. 3. 3. 3. 3. 2. 69. 32. 58. 4. 4. 4. 10.
      4. 66. 6. 58. 8. 16. 43. 63. 13. 62. 4. 66. 65. 72. 105. 93. 53.
      56. 4. 82. 112. 87. 87. 45. 20. 51. 4. 80. 77. 36. 22. 6. 3. 46.
      5. 62. 12. 4. 4. 3. 2. 44. 4. 58. 4. 3. 3. 3. 2. 58. 6. 57. 4. 4.
      4. 3. 2. 57. 41. 62. 4. 4. 3. 2. 2. 50. 96. 71. 3. 2. 3. 3. 2. 9.
      17. 11. 3. 2. 3. 3. 2. 3. 12. 4. 2. 2. 2. 2.</_>
    <_>
      3. 3. 2. 3. 3. 3. 3. 3. 3. 3. 5. 5. 4. 3. 3. 3. 4. 4. 35. 53. 5.
      3. 3. 3. 4. 4. 42. 42. 33. 4. 4. 3. 4. 7. 44. 15. 40. 5. 4. 3. 4.
      26. 67. 122. 28. 4. 4. 3. 4. 30. 149. 203. 108. 5. 4. 3. 4. 18.
      198. 208. 174. 26. 3. 5. 3. 30. 199. 201. 174. 62. 11. 4. 3. 26.
      191. 191. 161. 23. 60. 5. 3. 11. 164. 180. 123. 6. 34. 42. 3. 5.
      91. 151. 58. 4. 4. 14. 3. 3. 17. 45. 11. 3. 3. 3. 2. 3. 3. 5. 3.
      3. 3. 3. 2. 2. 3. 3. 3. 3. 2. 2. 3. 3. 3. 3. 3. 3. 2. 2.</_>
    <_>
      2. 2. 58. 17. 2. 2. 2. 2. 2. 2. 46. 35. 2. 2. 2. 2. 2. 2. 30. 48.
      2. 2. 2. 2. 2. 2. 12. 52. 2. 2. 2. 2. 2. 2. 10. 48. 5. 2. 2. 2. 2.
      2. 5. 68. 8. 2. 2. 2. 2. 2. 3. 69. 18. 2. 2. 2. 2. 1. 2. 36. 31.
      3. 3. 2. 2. 3. 6. 32. 65. 78. 51. 2. 2. 24. 78. 65. 35. 10. 55. 3.
      2. 22. 48. 3. 2. 4. 65. 3. 2. 7. 80. 3. 5. 14. 49. 5. 2. 2. 48.
      64. 55. 55. 39. 2. 2. 2. 16. 18. 3. 2. 2. 2. 2. 2. 1. 2. 2. 2. 2.
      2. 2. 2. 2. 2. 2. 2. 2. 2.</_>
    <_>
      2. 2. 2. 2. 2. 2. 2. 2. 2. 2. 2. 2. 2. 2. 2. 2. 2. 19. 37. 24. 20.
      21. 19. 2. 3. 34. 30. 33. 37. 46. 56. 6. 3. 82. 7. 3. 2. 4. 74.
      10. 6. 47. 7. 5. 5. 4. 64. 14. 5. 56. 75. 74. 72. 80. 68. 10. 3.
      3. 3. 37. 37. 3. 4. 3. 3. 3. 3. 52. 36. 3. 2. 2. 3. 3. 3. 49. 30.
      2. 2. 3. 3. 3. 3. 41. 24. 8. 4. 3. 2. 2. 5. 45. 28. 14. 6. 2. 2.
      2. 3. 56. 26. 3. 2. 3. 2. 3. 4. 66. 24. 3. 3. 2. 3. 2. 3. 56. 16.
      2. 2. 3. 4. 3. 5. 51. 15. 2. 4. 5.</_>
    <_>
      2. 3. 14. 18. 6. 3. 2. 3. 3. 4. 21. 21. 6. 3. 3. 3. 3. 6. 50. 26.
      3. 3. 3. 2. 3. 17. 83. 53. 3. 3. 3. 2. 2. 27. 53. 45. 3. 3. 3. 2.
      3. 32. 6. 47. 2. 3. 3. 2. 2. 41. 4. 45. 8. 2. 3. 3. 2. 38. 4. 47.
      27. 12. 2. 3. 2. 45. 4. 54. 76. 33. 5. 3. 2. 42. 16. 40. 26. 61.
      41. 13. 2. 21. 88. 42. 3. 16. 48. 62. 2. 3. 32. 29. 3. 2. 8. 49.
      2. 3. 3. 4. 4. 2. 2. 6. 4. 4. 2. 1. 2. 3. 2. 2. 66. 4. 2. 2. 2. 3.
      3. 2. 16. 2. 2. 2. 2. 2. 2. 2.</_>
    <_>
      2. 2. 2. 1. 1. 1. 1. 1. 2. 2. 2. 2. 2. 2. 2. 2. 4. 15. 15. 15. 16.
      25. 22. 3. 15. 48. 40. 36. 34. 33. 46. 6. 26. 47. 2. 2. 3. 6. 92.
      10. 31. 60. 4. 3. 3. 5. 60. 18. 27. 53. 48. 50. 50. 59. 61. 16. 6.
      9. 9. 53. 37. 4. 5. 3. 2. 2. 2. 42. 34. 3. 2. 3. 2. 2. 3. 40. 36.
      2. 2. 2. 2. 2. 3. 47. 42. 3. 2. 2. 2. 2. 3. 59. 46. 8. 9. 2. 2. 2.
      4. 40. 37. 11. 13. 2. 2. 2. 3. 32. 34. 4. 3. 2. 3. 3. 3. 42. 39.
      2. 3. 3. 4. 3. 2. 45. 47. 3. 2. 6.</_>
    <_>
      3. 3. 3. 3. 3. 2. 2. 2. 3. 3. 63. 8. 3. 3. 3. 3. 3. 4. 154. 37. 3.
      3. 3. 3. 3. 4. 131. 26. 4. 3. 3. 3. 3. 4. 35. 31. 10. 4. 4. 3. 3.
      4. 67. 68. 6. 4. 4. 3. 3. 4. 39. 54. 8. 4. 3. 3. 2. 9. 31. 41. 3.
      3. 3. 3. 2. 25. 13. 43. 10. 3. 2. 3. 2. 42. 4. 48. 63. 17. 3. 3.
      2. 36. 30. 41. 24. 69. 29. 4. 2. 6. 61. 35. 2. 15. 62. 37. 2. 2.
      8. 7. 3. 2. 9. 32. 2. 2. 2. 2. 3. 2. 2. 2. 14. 4. 2. 2. 2. 2. 2.
      2. 60. 3. 2. 2. 2. 2. 2. 2.</_>
    <_>
      4. 4. 4. 4. 4. 22. 29. 11. 4. 4. 4. 4. 4. 14. 15. 6. 3. 3. 3. 3.
      10. 33. 4. 4. 3. 3. 3. 3. 66. 55. 5. 3. 3. 3. 3. 4. 35. 21. 12. 2.
      3. 3. 2. 3. 32. 9. 20. 2. 3. 2. 2. 3. 36. 3. 24. 2. 2. 2. 3. 23.
      60. 3. 31. 2. 2. 3. 32. 57. 55. 2. 33. 2. 2. 33. 61. 29. 30. 25.
      36. 2. 24. 75. 23. 3. 24. 75. 17. 2. 59. 24. 3. 2. 10. 25. 3. 2.
      19. 3. 3. 2. 3. 3. 3. 8. 3. 2. 3. 2. 3. 3. 3. 39. 2. 2. 3. 2. 2.
      2. 2. 5. 2. 2. 2. 2. 2. 2. 2. 2.</_>
    <_>
      2. 2. 43. 33. 2. 1. 2. 2. 2. 2. 24. 40. 2. 2. 2. 2. 2. 2. 18. 44.
      2. 2. 2. 2. 2. 2. 12. 48. 2. 2. 2. 2. 2. 2. 10. 69. 5. 2. 2. 2. 2.
      2. 4. 68. 14. 2. 2. 2. 2. 2. 3. 50. 19. 2. 2. 2. 2. 2. 3. 35. 27.
      3. 2. 2. 2. 3. 5. 35. 59. 63. 37. 2. 2. 28. 83. 70. 45. 20. 58. 2.
      2. 23. 51. 3. 3. 4. 84. 3. 2. 8. 71. 3. 6. 12. 46. 3. 2. 3. 56.
      62. 57. 52. 41. 3. 2. 2. 14. 10. 2. 2. 2. 2. 2. 2. 1. 2. 2. 2. 2.
      2. 2. 2. 2. 2. 2. 2. 2. 2.</_>
    <_>
      2. 2. 3. 3. 3. 3. 3. 2. 2. 7. 32. 22. 2. 2. 2. 2. 2. 34. 90. 36.
      2. 2. 2. 2. 2. 42. 42. 34. 2. 1. 2. 2. 2. 34. 5. 33. 2. 1. 3. 2.
      2. 30. 3. 35. 3. 4. 6. 9. 2. 30. 3. 49. 26. 39. 48. 44. 2. 33. 2.
      68. 63. 63. 76. 58. 2. 29. 3. 66. 53. 56. 51. 38. 2. 30. 2. 43.
      12. 10. 7. 4. 2. 31. 3. 35. 2. 2. 2. 2. 2. 34. 3. 39. 2. 2. 2. 2.
      2. 31. 25. 33. 2. 2. 2. 2. 2. 38. 99. 40. 2. 2. 2. 2. 2. 18. 54.
      29. 2. 2. 2. 2. 1. 2. 5. 5. 2. 2. 2. 2.</_>
    <_>
      2. 2. 1. 1. 1. 1. 2. 2. 2. 2. 2. 2. 3. 1. 2. 2. 3. 17. 20. 22. 28.
      37. 32. 3. 14. 55. 44. 43. 38. 32. 52. 10. 19. 71. 3. 3. 3. 4. 94.
      19. 21. 64. 4. 3. 4. 4. 49. 26. 21. 75. 75. 68. 75. 75. 72. 23. 4.
      9. 6. 36. 54. 4. 3. 3. 3. 2. 3. 33. 50. 4. 2. 2. 2. 2. 2. 27. 47.
      3. 2. 3. 2. 2. 3. 26. 55. 5. 7. 2. 3. 2. 2. 32. 64. 10. 22. 2. 3.
      3. 3. 24. 69. 6. 5. 3. 2. 3. 3. 19. 57. 5. 3. 2. 2. 3. 2. 19. 49.
      6. 3. 3. 3. 4. 3. 22. 74. 8. 2. 6.</_>
    <_>
      3. 3. 3. 3. 3. 3. 2. 3. 2. 3. 3. 3. 3. 4. 2. 3. 2. 2. 2. 2. 19.
      48. 17. 2. 3. 3. 4. 3. 46. 59. 31. 2. 3. 3. 3. 2. 33. 7. 33. 1. 3.
      2. 2. 2. 32. 3. 26. 2. 2. 2. 2. 3. 36. 2. 24. 2. 2. 3. 5. 29. 69.
      2. 27. 2. 3. 14. 37. 75. 69. 4. 30. 2. 27. 65. 59. 41. 36. 4. 34.
      2. 70. 55. 19. 4. 28. 32. 38. 4. 38. 7. 3. 2. 27. 79. 26. 27. 3.
      2. 2. 3. 12. 25. 4. 39. 1. 2. 2. 2. 3. 3. 2. 2. 2. 2. 2. 2. 2. 2.
      2. 2. 2. 2. 2. 2. 2. 2. 2. 2.</_>
    <_>
      2. 2. 2. 2. 13. 74. 5. 2. 3. 3. 2. 2. 54. 155. 20. 2. 3. 4. 4. 4.
      87. 165. 50. 2. 3. 3. 3. 3. 101. 164. 81. 3. 3. 2. 2. 3. 101. 166.
      85. 3. 3. 2. 2. 3. 91. 168. 75. 2. 3. 3. 3. 5. 71. 159. 45. 3. 16.
      28. 26. 43. 57. 76. 31. 3. 70. 69. 74. 66. 70. 8. 28. 3. 61. 57.
      56. 51. 51. 3. 28. 3. 13. 12. 8. 5. 34. 3. 29. 2. 2. 2. 2. 2. 33.
      3. 31. 2. 2. 2. 2. 3. 36. 6. 36. 1. 2. 2. 3. 3. 33. 35. 43. 2. 2.
      3. 3. 2. 12. 18. 6. 2. 2. 2. 2. 2. 2. 2. 2. 2.</_>
    <_>
      2. 2. 2. 2. 15. 2. 2. 3. 2. 2. 3. 3. 3. 3. 3. 2. 2. 2. 3. 4. 10.
      3. 3. 3. 2. 3. 3. 24. 51. 3. 4. 17. 6. 20. 16. 76. 42. 3. 16. 77.
      28. 59. 45. 43. 37. 18. 75. 93. 25. 11. 8. 38. 45. 82. 91. 28. 18.
      2. 3. 38. 64. 94. 32. 4. 16. 3. 3. 31. 52. 40. 5. 3. 8. 2. 3. 29.
      40. 6. 3. 3. 3. 2. 2. 33. 38. 4. 4. 2. 2. 2. 3. 36. 38. 4. 3. 2.
      2. 2. 2. 38. 70. 3. 2. 2. 2. 2. 2. 55. 65. 3. 2. 2. 2. 2. 3. 13.
      14. 3. 2. 2. 1. 2. 2. 2. 6. 3. 2. 2.</_>
    <_>
      2. 2. 2. 2. 3. 3. 3. 2. 1. 2. 2. 2. 2. 1. 2. 2. 1. 2. 2. 2. 2. 2.
      2. 2. 1. 2. 2. 2. 7. 27. 3. 3. 1. 2. 3. 10. 27. 36. 16. 46. 1. 1.
      21. 37. 26. 46. 52. 18. 2. 2. 24. 2. 26. 23. 3. 2. 2. 2. 23. 2.
      22. 40. 2. 2. 2. 7. 16. 2. 9. 23. 2. 2. 2. 22. 2. 2. 2. 2. 2. 2.
      2. 23. 2. 2. 2. 2. 2. 2. 1. 22. 2. 2. 2. 1. 2. 2. 6. 17. 2. 2. 2.
      2. 2. 2. 22. 2. 2. 2. 2. 2. 1. 1. 13. 2. 2. 1. 2. 1. 1. 1. 2. 1.
      1. 1. 2. 1. 1. 1.</_>
    <_>
      2. 2. 3. 3. 3. 3. 3. 3. 2. 3. 3. 3. 3. 2. 3. 3. 2. 2. 3. 2. 18.
      27. 3. 3. 2. 2. 2. 2. 27. 32. 5. 11. 2. 2. 5. 12. 26. 44. 56. 50.
      2. 2. 32. 44. 32. 21. 4. 3. 2. 2. 26. 2. 32. 37. 3. 2. 2. 9. 18.
      2. 3. 3. 2. 1. 2. 23. 3. 2. 2. 2. 2. 2. 3. 26. 2. 2. 2. 2. 3. 3.
      3. 24. 3. 3. 3. 3. 3. 3. 15. 12. 3. 3. 3. 3. 3. 2. 25. 3. 3. 3. 3.
      3. 3. 3. 18. 3. 3. 3. 3. 3. 3. 3. 3. 3. 3. 3. 3. 3. 3. 3. 3. 3. 3.
      2. 2. 2. 3. 3.</_>
    <_>
      2. 2. 3. 3. 103. 6. 3. 3. 2. 2. 3. 2. 14. 3. 2. 3. 2. 2. 2. 2. 31.
      31. 3. 3. 2. 2. 2. 3. 15. 34. 28. 29. 2. 2. 21. 49. 21. 38. 26.
      20. 2. 2. 30. 4. 34. 33. 2. 2. 2. 2. 27. 2. 3. 5. 2. 2. 2. 20. 10.
      2. 2. 2. 2. 2. 2. 30. 2. 2. 2. 2. 2. 2. 2. 28. 2. 2. 2. 2. 2. 2.
      8. 21. 2. 2. 2. 2. 2. 2. 27. 3. 2. 2. 2. 2. 1. 2. 17. 2. 2. 2. 2.
      2. 2. 2. 2. 2. 2. 2. 2. 1. 1. 2. 2. 2. 2. 2. 2. 1. 1. 2. 2. 2. 2.
      2. 1. 1. 1. 1.</_>
    <_>
      1. 2. 2. 2. 3. 3. 2. 2. 1. 2. 2. 2. 2. 2. 2. 2. 1. 2. 2. 2. 3. 2.
      2. 2. 1. 2. 2. 2. 4. 16. 3. 2. 1. 2. 5. 23. 30. 45. 6. 29. 2. 2.
      19. 18. 26. 29. 52. 34. 2. 2. 17. 2. 23. 25. 8. 2. 2. 2. 15. 3.
      22. 28. 2. 2. 2. 10. 8. 2. 18. 42. 3. 2. 2. 17. 2. 2. 3. 3. 2. 2.
      2. 16. 2. 2. 2. 2. 2. 2. 2. 16. 2. 2. 2. 2. 2. 2. 9. 8. 2. 2. 2.
      2. 2. 2. 16. 2. 2. 2. 2. 2. 2. 1. 12. 2. 2. 2. 2. 2. 2. 1. 2. 2.
      2. 2. 2. 1. 1. 1.</_>
    <_>
      2. 2. 3. 3. 3. 3. 3. 2. 2. 2. 3. 3. 3. 2. 2. 2. 2. 2. 3. 2. 3. 3.
      2. 2. 2. 2. 2. 2. 19. 46. 2. 2. 2. 2. 5. 14. 26. 29. 19. 42. 2. 2.
      26. 45. 34. 37. 50. 25. 2. 2. 26. 2. 23. 21. 3. 2. 2. 3. 24. 2.
      30. 50. 2. 2. 2. 13. 14. 2. 5. 6. 2. 2. 2. 26. 3. 3. 2. 3. 2. 2.
      2. 26. 2. 2. 2. 2. 2. 2. 3. 25. 3. 2. 2. 2. 2. 1. 14. 13. 2. 2. 2.
      2. 2. 1. 26. 2. 2. 2. 2. 2. 2. 1. 14. 2. 2. 2. 2. 1. 1. 1. 2. 2.
      2. 2. 2. 1. 1. 1.</_>
    <_>
      2. 2. 2. 2. 3. 2. 2. 2. 2. 2. 2. 2. 2. 2. 2. 2. 2. 2. 2. 2. 2. 2.
      2. 2. 2. 2. 2. 2. 22. 52. 2. 2. 2. 2. 3. 5. 25. 29. 33. 47. 2. 2.
      18. 35. 32. 33. 33. 16. 2. 2. 18. 3. 25. 24. 2. 2. 2. 2. 16. 3.
      22. 50. 2. 2. 1. 10. 8. 2. 2. 2. 2. 2. 2. 17. 2. 2. 2. 2. 2. 2. 2.
      18. 2. 2. 2. 2. 2. 2. 3. 17. 2. 2. 2. 2. 2. 2. 11. 8. 2. 2. 2. 2.
      2. 2. 18. 2. 2. 2. 2. 2. 1. 1. 10. 2. 1. 2. 1. 1. 1. 1. 2. 2. 1.
      1. 1. 1. 1. 1.</_>
    <_>
      2. 3. 5. 4. 2. 3. 3. 2. 2. 18. 58. 38. 3. 3. 2. 2. 2. 56. 104. 50.
      2. 2. 2. 2. 2. 47. 24. 43. 2. 2. 2. 2. 2. 48. 4. 43. 2. 2. 2. 2.
      2. 44. 3. 42. 3. 3. 3. 3. 2. 38. 3. 55. 20. 28. 19. 25. 2. 44. 3.
      84. 66. 73. 65. 64. 2. 43. 3. 78. 60. 67. 68. 68. 2. 43. 3. 48.
      16. 19. 17. 22. 2. 47. 4. 41. 3. 2. 2. 3. 2. 47. 5. 43. 2. 2. 2.
      2. 3. 46. 45. 45. 2. 2. 2. 2. 2. 50. 104. 43. 2. 2. 2. 2. 2. 12.
      45. 21. 2. 2. 2. 2. 2. 2. 4. 3. 2. 2. 2. 2.</_>
    <_>
      3. 3. 3. 3. 3. 3. 3. 3. 2. 3. 4. 4. 3. 4. 3. 3. 3. 16. 42. 31. 27.
      26. 26. 8. 4. 60. 85. 84. 88. 91. 106. 29. 17. 51. 8. 7. 8. 11.
      65. 14. 21. 101. 106. 106. 100. 97. 92. 9. 16. 15. 24. 80. 71. 37.
      33. 4. 5. 4. 7. 103. 48. 4. 4. 3. 4. 4. 7. 78. 29. 4. 3. 3. 4. 4.
      7. 71. 28. 4. 4. 3. 4. 4. 10. 106. 34. 3. 3. 3. 4. 4. 10. 103. 26.
      4. 3. 2. 3. 4. 13. 84. 22. 3. 3. 3. 3. 3. 19. 96. 25. 3. 3. 3. 5.
      4. 19. 105. 19. 3. 3. 3. 8. 5. 16. 84. 16. 3. 4. 4.</_>
    <_>
      85. 4. 3. 3. 4. 4. 4. 3. 130. 5. 3. 3. 3. 3. 3. 2. 58. 8. 10. 13.
      20. 42. 13. 3. 18. 106. 102. 100. 99. 85. 52. 3. 26. 62. 8. 7. 5.
      28. 62. 4. 29. 73. 7. 5. 6. 19. 73. 4. 25. 90. 75. 89. 97. 108.
      84. 4. 8. 59. 44. 89. 71. 10. 7. 4. 4. 4. 6. 65. 70. 5. 5. 4. 3.
      4. 5. 67. 79. 5. 4. 3. 3. 3. 4. 64. 102. 8. 4. 3. 3. 3. 4. 40.
      110. 9. 4. 3. 3. 3. 4. 30. 103. 9. 3. 3. 2. 3. 4. 24. 98. 10. 3.
      3. 2. 3. 4. 17. 134. 25. 3. 5. 4. 5. 4. 10. 118. 37. 4. 5.</_>
    <_>
      3. 3. 3. 3. 3. 3. 3. 3. 3. 3. 3. 3. 3. 2. 3. 3. 3. 3. 3. 15. 37.
      4. 3. 2. 3. 7. 42. 96. 86. 10. 3. 2. 4. 94. 69. 11. 39. 42. 4. 3.
      4. 53. 6. 6. 15. 63. 3. 3. 4. 64. 15. 63. 108. 44. 5. 3. 3. 45.
      108. 103. 49. 5. 4. 3. 3. 7. 13. 42. 77. 4. 4. 3. 3. 3. 4. 9. 109.
      5. 4. 3. 3. 3. 3. 5. 102. 26. 4. 3. 3. 2. 3. 4. 63. 66. 4. 3. 3.
      2. 3. 4. 24. 99. 5. 4. 3. 2. 2. 3. 10. 102. 11. 5. 3. 2. 2. 3. 4.
      87. 31. 6. 2. 2. 2. 4. 4. 52. 24. 5.</_>
    <_>
      2. 2. 2. 3. 3. 3. 3. 3. 2. 2. 2. 3. 2. 3. 3. 3. 2. 2. 3. 19. 4. 3.
      3. 3. 2. 3. 13. 102. 30. 3. 3. 3. 3. 9. 86. 15. 68. 5. 4. 3. 3.
      72. 31. 6. 68. 17. 15. 7. 3. 54. 7. 39. 75. 6. 3. 3. 3. 40. 44.
      125. 34. 4. 3. 3. 3. 8. 96. 33. 78. 5. 4. 3. 2. 2. 6. 6. 90. 16.
      4. 3. 2. 2. 3. 4. 41. 68. 4. 3. 2. 2. 3. 3. 12. 93. 6. 5. 2. 2. 2.
      3. 4. 69. 45. 5. 3. 3. 2. 3. 4. 17. 87. 5. 3. 3. 2. 2. 3. 5. 88.
      10. 3. 3. 2. 2. 3. 4. 11. 8.</_>
    <_>
      3. 3. 2. 2. 2. 2. 2. 10. 2. 2. 3. 3. 3. 2. 2. 8. 2. 2. 33. 13. 3.
      2. 2. 2. 2. 3. 66. 73. 8. 3. 3. 2. 3. 5. 59. 30. 44. 3. 2. 2. 3.
      18. 46. 42. 28. 3. 2. 2. 3. 62. 10. 63. 8. 4. 3. 3. 3. 62. 6. 107.
      37. 5. 4. 3. 2. 45. 46. 88. 103. 18. 4. 5. 2. 7. 98. 25. 77. 78.
      7. 6. 2. 3. 24. 5. 11. 102. 46. 6. 2. 3. 3. 4. 4. 34. 107. 24. 2.
      2. 2. 3. 3. 4. 68. 70. 2. 2. 2. 2. 3. 3. 7. 35. 2. 2. 2. 2. 3. 3.
      4. 6. 2. 3. 2. 2. 3. 3. 3. 4.</_>
    <_>
      2. 2. 2. 2. 2. 2. 4. 4. 2. 3. 3. 2. 2. 4. 3. 2. 2. 2. 4. 3. 3. 3.
      3. 3. 2. 4. 31. 22. 3. 3. 3. 4. 2. 30. 93. 53. 3. 4. 6. 30. 4. 65.
      39. 54. 4. 18. 51. 88. 7. 58. 6. 54. 32. 93. 94. 80. 3. 54. 5. 82.
      91. 105. 45. 14. 2. 46. 4. 101. 76. 29. 6. 3. 2. 53. 4. 64. 14. 4.
      3. 3. 2. 53. 5. 54. 4. 3. 2. 2. 2. 54. 6. 54. 4. 4. 3. 2. 2. 52.
      36. 66. 3. 2. 2. 3. 2. 41. 102. 67. 2. 2. 2. 3. 2. 7. 20. 13. 2.
      2. 2. 2. 2. 3. 3. 4. 2. 2. 2. 2.</_>
    <_>
      3. 2. 2. 2. 2. 3. 3. 3. 2. 2. 2. 2. 2. 2. 25. 9. 2. 2. 2. 2. 3. 4.
      68. 30. 2. 2. 3. 3. 3. 23. 76. 3. 2. 2. 3. 3. 4. 69. 26. 2. 2. 2.
      4. 3. 23. 75. 4. 2. 2. 3. 50. 7. 78. 21. 3. 3. 2. 11. 81. 59. 71.
      4. 2. 3. 3. 50. 24. 104. 17. 4. 2. 2. 5. 64. 5. 58. 42. 66. 3. 2.
      2. 34. 36. 10. 140. 165. 13. 2. 2. 3. 64. 27. 138. 171. 25. 2. 3.
      3. 57. 71. 89. 160. 11. 3. 2. 2. 9. 31. 14. 39. 3. 2. 2. 2. 2. 3.
      2. 2. 3. 2. 2. 2. 2. 3. 3. 3. 3. 2.</_>
    <_>
      2. 3. 2. 2. 7. 97. 6. 2. 3. 3. 2. 2. 27. 91. 4. 3. 3. 2. 2. 2. 46.
      57. 3. 3. 3. 2. 2. 2. 57. 37. 4. 3. 3. 2. 2. 3. 72. 64. 127. 29.
      3. 3. 4. 7. 94. 120. 179. 97. 2. 2. 4. 17. 85. 93. 174. 69. 3. 4.
      4. 40. 60. 10. 41. 6. 3. 54. 97. 75. 41. 5. 3. 3. 3. 59. 23. 71.
      105. 95. 11. 3. 5. 70. 5. 4. 6. 59. 11. 2. 4. 76. 22. 7. 6. 75. 4.
      3. 4. 49. 85. 93. 70. 55. 3. 3. 3. 3. 3. 8. 48. 18. 2. 2. 2. 2. 2.
      2. 2. 2. 2. 2. 2. 2. 2. 2. 2. 2. 2. 2.</_>
    <_>
      2. 2. 3. 3. 15. 92. 5. 2. 3. 3. 3. 2. 41. 74. 3. 2. 2. 3. 2. 2.
      54. 46. 3. 3. 2. 3. 2. 3. 68. 75. 113. 10. 2. 3. 3. 5. 79. 123.
      164. 26. 2. 2. 3. 10. 93. 44. 91. 6. 2. 2. 3. 28. 84. 4. 3. 3. 2.
      4. 4. 53. 54. 4. 2. 3. 3. 60. 90. 71. 32. 5. 3. 3. 4. 58. 28. 76.
      107. 89. 5. 3. 4. 73. 5. 5. 6. 69. 6. 2. 7. 79. 18. 6. 6. 76. 3.
      3. 4. 60. 85. 94. 68. 49. 3. 2. 2. 3. 4. 10. 52. 14. 3. 2. 2. 2.
      2. 2. 2. 2. 2. 2. 2. 2. 2. 2. 2. 2. 2. 2.</_>
    <_>
      2. 2. 3. 43. 93. 8. 2. 2. 2. 2. 3. 41. 72. 6. 2. 2. 2. 2. 2. 40.
      68. 5. 2. 2. 2. 2. 3. 46. 81. 4. 2. 2. 2. 2. 3. 56. 83. 19. 4. 2.
      2. 2. 4. 62. 72. 6. 3. 3. 3. 3. 4. 58. 60. 4. 3. 2. 3. 3. 5. 61.
      54. 4. 4. 3. 8. 39. 33. 94. 81. 12. 11. 4. 42. 95. 84. 96. 103.
      101. 104. 9. 45. 75. 5. 4. 4. 5. 79. 9. 35. 58. 5. 4. 4. 6. 85. 7.
      22. 111. 94. 83. 82. 82. 88. 5. 4. 23. 20. 15. 24. 45. 25. 3. 3.
      3. 3. 3. 3. 3. 3. 3. 2. 2. 3. 2. 2. 2. 2. 3.</_>
    <_>
      2. 6. 3. 2. 2. 2. 2. 2. 2. 2. 2. 1. 1. 2. 1. 2. 2. 2. 2. 1. 2. 2.
      6. 15. 2. 2. 3. 4. 4. 6. 80. 81. 2. 2. 11. 16. 4. 37. 120. 18. 3.
      3. 53. 52. 21. 107. 34. 4. 2. 20. 59. 61. 83. 68. 5. 3. 2. 51. 11.
      61. 91. 12. 3. 2. 2. 57. 8. 41. 41. 4. 3. 2. 3. 25. 35. 11. 51. 3.
      3. 2. 3. 4. 47. 5. 61. 3. 3. 2. 2. 5. 49. 22. 55. 2. 2. 2. 3. 3.
      63. 67. 18. 3. 2. 2. 2. 3. 27. 29. 3. 2. 2. 2. 2. 2. 4. 3. 2. 2.
      2. 2. 2. 2. 2. 3. 2. 2. 2. 2.</_>
    <_>
      2. 5. 2. 2. 2. 2. 3. 4. 4. 5. 2. 3. 2. 3. 3. 5. 2. 2. 2. 2. 3. 4.
      29. 47. 2. 2. 2. 2. 3. 7. 91. 43. 2. 2. 3. 3. 4. 57. 94. 4. 2. 3.
      16. 5. 20. 104. 27. 3. 2. 4. 74. 18. 70. 64. 4. 3. 2. 35. 43. 79.
      93. 7. 3. 2. 3. 54. 5. 77. 32. 3. 2. 2. 3. 56. 6. 56. 6. 3. 2. 2.
      3. 20. 31. 26. 30. 2. 2. 2. 3. 4. 49. 35. 36. 2. 2. 2. 2. 2. 61.
      64. 6. 2. 3. 2. 2. 2. 33. 14. 3. 2. 2. 2. 2. 2. 3. 2. 2. 2. 2. 2.
      2. 2. 3. 2. 2. 2. 2. 2.</_>
    <_>
      2. 5. 3. 3. 2. 3. 3. 5. 6. 3. 2. 2. 2. 2. 3. 8. 2. 1. 2. 2. 2. 3.
      32. 44. 2. 2. 3. 3. 3. 8. 94. 26. 2. 2. 3. 3. 4. 60. 81. 4. 2. 3.
      8. 4. 18. 103. 24. 3. 2. 3. 67. 14. 77. 53. 4. 3. 2. 23. 51. 78.
      92. 8. 3. 2. 2. 50. 6. 81. 33. 3. 3. 2. 2. 53. 8. 54. 6. 3. 3. 2.
      2. 16. 32. 25. 35. 3. 2. 2. 2. 4. 48. 29. 36. 2. 2. 2. 2. 3. 59.
      61. 6. 3. 2. 2. 2. 2. 29. 14. 2. 2. 2. 2. 2. 2. 2. 3. 2. 2. 2. 2.
      2. 2. 2. 3. 2. 2. 2. 2.</_>
    <_>
      3. 3. 3. 3. 5. 5. 4. 3. 4. 4. 4. 4. 25. 44. 22. 3. 4. 5. 5. 6. 71.
      97. 59. 3. 5. 5. 5. 5. 59. 23. 60. 3. 5. 5. 5. 6. 56. 6. 56. 3. 6.
      6. 7. 7. 62. 6. 49. 3. 8. 8. 13. 20. 80. 6. 53. 3. 18. 35. 80. 95.
      127. 6. 56. 4. 96. 124. 124. 136. 117. 5. 53. 17. 121. 137. 89.
      63. 67. 6. 54. 10. 58. 41. 13. 10. 48. 7. 63. 3. 8. 6. 6. 6. 46.
      26. 68. 3. 4. 4. 5. 6. 52. 92. 71. 2. 4. 5. 6. 6. 32. 57. 14. 3.
      4. 4. 4. 3. 7. 9. 3. 2. 4. 4. 3. 3. 4. 4. 3. 2.</_>
    <_>
      2. 2. 2. 3. 4. 4. 2. 2. 2. 2. 2. 3. 6. 17. 4. 2. 2. 2. 3. 5. 68.
      110. 13. 2. 3. 4. 5. 9. 87. 59. 27. 2. 4. 6. 4. 7. 56. 23. 38. 2.
      3. 3. 4. 5. 61. 15. 42. 3. 4. 4. 5. 10. 69. 9. 44. 4. 4. 5. 21.
      76. 93. 7. 54. 3. 7. 42. 103. 134. 96. 6. 58. 4. 62. 136. 105. 60.
      58. 6. 61. 3. 123. 107. 28. 9. 64. 38. 71. 3. 73. 17. 5. 4. 64.
      90. 31. 8. 8. 4. 4. 5. 29. 34. 4. 38. 4. 4. 6. 4. 4. 4. 3. 8. 3.
      4. 3. 3. 3. 3. 2. 3. 3. 3. 3. 2. 2. 2. 2. 2.</_>
    <_>
      2. 3. 3. 2. 3. 2. 2. 3. 2. 3. 3. 3. 3. 3. 2. 3. 2. 2. 3. 4. 12.
      53. 3. 3. 2. 2. 3. 9. 94. 78. 4. 3. 3. 3. 3. 26. 51. 52. 6. 2. 3.
      3. 6. 8. 53. 32. 25. 2. 3. 5. 4. 6. 63. 10. 48. 3. 4. 3. 4. 37.
      100. 6. 60. 3. 3. 4. 32. 101. 95. 9. 59. 3. 4. 21. 93. 71. 52. 65.
      37. 3. 9. 102. 80. 9. 23. 79. 5. 3. 85. 91. 9. 4. 6. 10. 3. 3. 96.
      15. 4. 4. 3. 4. 2. 2. 15. 4. 4. 3. 2. 2. 2. 3. 4. 3. 3. 2. 2. 2.
      2. 3. 4. 3. 3. 3. 2. 2. 2. 2.</_>
    <_>
      3. 3. 3. 3. 2. 2. 2. 3. 3. 3. 2. 3. 3. 3. 2. 2. 3. 3. 3. 4. 37. 5.
      2. 2. 3. 3. 2. 16. 84. 46. 3. 2. 2. 2. 3. 60. 15. 71. 5. 2. 2. 2.
      4. 74. 7. 38. 42. 2. 2. 2. 4. 36. 48. 6. 64. 2. 2. 3. 4. 34. 89.
      25. 50. 2. 3. 4. 6. 96. 54. 79. 10. 3. 4. 3. 48. 75. 6. 44. 4. 2.
      4. 6. 99. 28. 4. 4. 3. 2. 4. 40. 79. 5. 3. 3. 3. 2. 8. 95. 18. 4.
      3. 3. 3. 2. 36. 81. 4. 3. 2. 2. 3. 2. 23. 16. 4. 2. 2. 2. 3. 2. 6.
      3. 3. 2. 2. 2. 3. 2.</_>
    <_>
      3. 3. 2. 3. 3. 3. 3. 3. 3. 2. 2. 3. 12. 3. 2. 2. 2. 3. 3. 21. 6.
      4. 3. 3. 2. 3. 14. 100. 91. 39. 8. 3. 3. 3. 56. 27. 16. 69. 98. 5.
      3. 4. 66. 9. 5. 6. 55. 4. 4. 4. 66. 103. 56. 12. 67. 4. 10. 4. 5.
      47. 99. 107. 51. 3. 3. 3. 4. 70. 39. 10. 9. 4. 3. 3. 5. 97. 18. 4.
      3. 3. 3. 3. 11. 105. 5. 4. 3. 3. 3. 4. 38. 79. 4. 3. 3. 2. 3. 4.
      70. 51. 3. 3. 2. 2. 5. 5. 108. 14. 3. 2. 2. 2. 6. 13. 101. 6. 3.
      3. 2. 2. 7. 22. 69. 4. 3. 3. 2. 2.</_>
    <_>
      2. 2. 2. 2. 2. 2. 2. 2. 2. 5. 19. 7. 3. 2. 2. 2. 2. 25. 104. 58.
      4. 2. 3. 2. 2. 44. 54. 76. 6. 5. 4. 3. 2. 50. 11. 61. 4. 3. 4. 4.
      3. 47. 7. 58. 4. 3. 3. 3. 3. 45. 6. 58. 11. 4. 4. 3. 3. 48. 6. 81.
      65. 26. 5. 4. 3. 54. 5. 82. 88. 102. 36. 13. 3. 58. 5. 59. 31. 89.
      97. 73. 2. 66. 38. 48. 4. 18. 60. 85. 3. 32. 88. 46. 3. 4. 8. 26.
      2. 4. 34. 19. 5. 4. 3. 4. 20. 8. 10. 3. 3. 5. 3. 3. 33. 6. 3. 2.
      3. 3. 3. 3. 3. 2. 2. 2. 2. 2. 3. 2.</_></uncompressed_support_vectors>
  <decision_functions>
    <_>
      <sv_count>1</sv_count>
      <rho>2.6749052917671214e+00</rho>
      <alpha>
        1.</alpha>
      <index>
        0</index></_></decision_functions></opencv_ml_svm>
</opencv_storage>
